{"learner":{"attributes":{"scikit_learn":"{\"_estimator_type\": \"classifier\"}"},"feature_names":["CreditScore","Gender","Age","Tenure","Balance","NumOfProducts","HasCrCard","IsActiveMember","EstimatedSalary","Group_Stat"],"feature_types":["int","int","int","int","float","int","int","int","float","float"],"gradient_booster":{"model":{"gbtree_model_param":{"num_parallel_tree":"1","num_trees":"100"},"iteration_indptr":[0,1,2,3,4,5,6,7,8,9,10,11,12,13,14,15,16,17,18,19,20,21,22,23,24,25,26,27,28,29,30,31,32,33,34,35,36,37,38,39,40,41,42,43,44,45,46,47,48,49,50,51,52,53,54,55,56,57,58,59,60,61,62,63,64,65,66,67,68,69,70,71,72,73,74,75,76,77,78,79,80,81,82,83,84,85,86,87,88,89,90,91,92,93,94,95,96,97,98,99,100],"tree_info":[0,0,0,0,0,0,0,0,0,0,0,0,0,0,0,0,0,0,0,0,0,0,0,0,0,0,0,0,0,0,0,0,0,0,0,0,0,0,0,0,0,0,0,0,0,0,0,0,0,0,0,0,0,0,0,0,0,0,0,0,0,0,0,0,0,0,0,0,0,0,0,0,0,0,0,0,0,0,0,0,0,0,0,0,0,0,0,0,0,0,0,0,0,0,0,0,0,0,0,0],"trees":[{"base_weights":[2.5477752E-1,-7.3356616E-1,7.189498E-1,-2.2100673E0,-2.6799005E-1,-6.7837453E-3,8.684755E-1,-4.101737E-1,-3.407058E0,-4.3000644E-1,3.6586237E-1,8.180946E-1,-1.108826E0,5.094966E-1,9.6897763E-1,-1.2865758E0,-1.5023956E-1,-3.9488893E0,6.806657E-1,2.7716586E-2,-8.594489E-1,2.8546533E-1,1.0054612E0,-2.1270933E0,1.1474508E0,3.822774E-1,3.7220505E-1,9.8461294E-1,-1.6472203E0,-1.7661812E0,7.887373E-1,-6.4612514E-1,2.7334926E-1,-3.4903061E0,-4.352849E0,-5.3198326E-1,8.454017E-1,3.8951212E-1,-1.0006713E0,-1.1183845E0,4.8787436E-1,-1.4651296E0,4.026267E-1,1.0326723E0,-9.280306E-1,-3.0398784E0,-1.4971911E0,1.1772698E0,5.1365625E-2,5.478608E-1,-2.5336602E-1,1.1123235E0,7.783598E-1,7.567436E-1,-3.0105093E0,-3.8772562E-1,-1.0879204E0,7.179915E-2,3.244645E-1,-4.1382578E-1,-5.08908E-2,1.274938E-1,-1.0768002E0,-1.1504405E0,-7.634466E-1,-1.3592525E0,-8.6191744E-1,7.534599E-2,3.430363E-1,-1.843826E-1,2.0030631E-1,-1.1874168E-1,-5.768339E-1,-6.756359E-1,-2.7276912E-1,-1.116998E0,1.85241E-1,-7.9953235E-1,2.3767382E-3,1.970513E-1,1.4169331E-3,3.2300243E-1,7.9033695E-2,-6.8072695E-1,-1.1035773E0,-6.0942703E-1,-1.5194727E-1,2.9040024E-1,3.7135422E-1,2.535818E-1,4.4796124E-2,-1.4507139E-1,2.4197257E-1,2.5323978E-1,3.4648484E-1,2.5858337E-1,1.0830855E-1,3.0516252E-1,8.035365E-2,-8.148228E-2,-1.2837739E0],"categories":[],"categories_nodes":[],"categories_segments":[],"categories_sizes":[],"default_left":[0,0,0,0,0,0,0,0,0,0,0,0,0,0,0,0,0,0,0,0,0,0,0,0,0,0,0,0,0,0,0,0,0,0,0,0,0,0,0,0,0,0,0,0,0,0,0,0,0,0,0,0,0,0,0,0,0,0,0,0,0,0,0,0,0,0,0,0,0,0,0,0,0,0,0,0,0,0,0,0,0,0,0,0,0,0,0,0,0,0,0,0,0,0,0,0,0,0,0,0,0],"id":0,"left_children":[1,3,5,7,9,11,13,15,17,19,-1,21,23,25,27,29,31,33,35,37,39,41,43,45,47,49,-1,51,53,55,57,59,61,63,65,-1,67,69,71,73,75,77,79,81,-1,83,85,87,-1,89,91,93,95,97,99,-1,-1,-1,-1,-1,-1,-1,-1,-1,-1,-1,-1,-1,-1,-1,-1,-1,-1,-1,-1,-1,-1,-1,-1,-1,-1,-1,-1,-1,-1,-1,-1,-1,-1,-1,-1,-1,-1,-1,-1,-1,-1,-1,-1,-1,-1],"loss_changes":[3.6233645E3,1.7345277E3,5.831587E2,1.3019731E3,4.6328342E2,8.363675E2,1.6026538E2,5.511068E1,8.0711914E2,3.405294E2,0E0,5.2225708E1,9.0731116E2,9.0382706E1,1.4397583E2,5.653457E1,3.974337E1,4.4242188E1,1.9027834E1,3.1273752E2,3.1235797E2,2.8961657E1,4.6566803E1,1.5168286E2,3.3825836E0,8.785846E1,0E0,9.02749E1,7.126184E1,3.5244293E1,1.5253763E0,3.0190655E1,6.143747E1,4.0826782E1,3.0845215E1,0E0,7.029562E0,1.7407486E2,1.2125217E2,1.7579663E2,8.1311554E1,1.5740263E1,1.3190805E1,1.281723E1,0E0,4.5797424E1,8.5107666E1,3.141632E-1,0E0,7.828223E1,4.258355E1,2.342749E1,4.5960144E1,7.992821E-1,4.6210434E1,0E0,0E0,0E0,0E0,0E0,0E0,0E0,0E0,0E0,0E0,0E0,0E0,0E0,0E0,0E0,0E0,0E0,0E0,0E0,0E0,0E0,0E0,0E0,0E0,0E0,0E0,0E0,0E0,0E0,0E0,0E0,0E0,0E0,0E0,0E0,0E0,0E0,0E0,0E0,0E0,0E0,0E0,0E0,0E0,0E0,0E0],"parents":[2147483647,0,0,1,1,2,2,3,3,4,4,5,5,6,6,7,7,8,8,9,9,11,11,12,12,13,13,14,14,15,15,16,16,17,17,18,18,19,19,20,20,21,21,22,22,23,23,24,24,25,25,27,27,28,28,29,29,30,30,31,31,32,32,33,33,34,34,36,36,37,37,38,38,39,39,40,40,41,41,42,42,43,43,45,45,46,46,47,47,49,49,50,50,51,51,52,52,53,53,54,54],"right_children":[2,4,6,8,10,12,14,16,18,20,-1,22,24,26,28,30,32,34,36,38,40,42,44,46,48,50,-1,52,54,56,58,60,62,64,66,-1,68,70,72,74,76,78,80,82,-1,84,86,88,-1,90,92,94,96,98,100,-1,-1,-1,-1,-1,-1,-1,-1,-1,-1,-1,-1,-1,-1,-1,-1,-1,-1,-1,-1,-1,-1,-1,-1,-1,-1,-1,-1,-1,-1,-1,-1,-1,-1,-1,-1,-1,-1,-1,-1,-1,-1,-1,-1,-1,-1],"split_conditions":[3.9E1,-3.6235008E4,-5.7341086E4,2E0,3E0,2E0,4.3E1,3.1E1,3E0,2.5780754E4,3.6586237E-1,4.5E1,3E0,3E0,7.2E1,1.9343789E5,1.1791663E5,1E0,6.506648E4,2E0,1.07313695E5,2.823825E4,7.2E1,1.025919E5,6.5E1,2E0,3.7220505E-1,1E0,1E0,7.07E2,5E0,3.5E1,3.834002E4,3.6E1,1.8179486E5,-5.3198326E-1,1.3273006E5,9.766561E4,1E0,1.0781267E5,3.234929E4,4.2E1,1E0,6.2E1,-9.280306E-1,1E0,5E1,4.3E1,5.1365625E-2,3.2412982E4,9.051081E4,4.5E1,5.8E1,4.39E2,5.47E2,-3.8772562E-1,-1.0879204E0,7.179915E-2,3.244645E-1,-4.1382578E-1,-5.08908E-2,1.274938E-1,-1.0768002E0,-1.1504405E0,-7.634466E-1,-1.3592525E0,-8.6191744E-1,7.534599E-2,3.430363E-1,-1.843826E-1,2.0030631E-1,-1.1874168E-1,-5.768339E-1,-6.756359E-1,-2.7276912E-1,-1.116998E0,1.85241E-1,-7.9953235E-1,2.3767382E-3,1.970513E-1,1.4169331E-3,3.2300243E-1,7.9033695E-2,-6.8072695E-1,-1.1035773E0,-6.0942703E-1,-1.5194727E-1,2.9040024E-1,3.7135422E-1,2.535818E-1,4.4796124E-2,-1.4507139E-1,2.4197257E-1,2.5323978E-1,3.4648484E-1,2.5858337E-1,1.0830855E-1,3.0516252E-1,8.035365E-2,-8.148228E-2,-1.2837739E0],"split_indices":[2,9,9,5,5,5,2,2,5,9,0,2,5,5,2,8,8,1,8,5,9,8,2,8,2,5,0,7,7,0,3,2,4,2,8,0,8,4,7,4,8,2,7,2,0,7,2,2,0,9,9,2,2,0,0,0,0,0,0,0,0,0,0,0,0,0,0,0,0,0,0,0,0,0,0,0,0,0,0,0,0,0,0,0,0,0,0,0,0,0,0,0,0,0,0,0,0,0,0,0,0],"split_type":[0,0,0,0,0,0,0,0,0,0,0,0,0,0,0,0,0,0,0,0,0,0,0,0,0,0,0,0,0,0,0,0,0,0,0,0,0,0,0,0,0,0,0,0,0,0,0,0,0,0,0,0,0,0,0,0,0,0,0,0,0,0,0,0,0,0,0,0,0,0,0,0,0,0,0,0,0,0,0,0,0,0,0,0,0,0,0,0,0,0,0,0,0,0,0,0,0,0,0,0,0],"sum_hessian":[7.8959897E3,2.5230913E3,5.3728984E3,6.0396497E2,1.9191262E3,9.18047E2,4.4548516E3,2.4176698E2,3.6219797E2,1.7312733E3,1.8785295E2,5.2519574E2,3.9285123E2,9.7573596E2,3.4791157E3,5.440015E1,1.8736684E2,3.1983725E2,4.2360737E1,8.384952E2,8.9277814E2,1.3732993E2,3.8786584E2,2.7072784E2,1.2212337E2,8.3242505E2,1.4331088E2,3.459067E3,2.0048943E1,4.430923E1,1.00909195E1,8.607522E1,1.0129162E2,1.5430606E2,1.6553117E2,2.0505753E0,4.031016E1,6.207362E2,2.17759E2,7.490011E2,1.4377702E2,7.8927813E0,1.2943715E2,3.8605106E2,1.8147928E0,1.08980034E2,1.6174782E2,1.1830384E2,3.8195257E0,6.605037E2,1.7192134E2,2.1335774E3,1.3254895E3,7.4162927E0,1.2632649E1,3.6665894E1,7.6433353E0,4.140109E0,5.9508104E0,3.315551E1,5.291971E1,9.832196E1,2.9696608E0,1.1085805E2,4.3448013E1,1.4591803E2,1.961315E1,1.4080176E1,2.6229984E1,1.3439731E2,4.8633887E2,1.323633E2,8.5395706E1,1.1513513E2,6.3386597E2,3.4646044E0,1.4031242E2,3.9035935E0,3.9891877E0,7.858216E1,5.0854984E1,3.6478442E2,2.126662E1,5.1447067E1,5.7532963E1,1.04399956E2,5.734786E1,3.0369566E1,8.793428E1,3.7759875E2,2.8290497E2,1.4169157E2,3.0229767E1,2.9545523E2,1.8381221E3,1.1034257E3,2.220638E2,4.1335135E0,3.282779E0,4.3835917E0,8.249058E0],"tree_param":{"num_deleted":"0","num_feature":"10","num_nodes":"101","size_leaf_vector":"1"}},{"base_weights":[2.3239082E-1,-3.7018573E-1,6.47851E-1,-8.98E-1,-3.009026E-2,1.3505018E-1,7.7694696E-1,-3.7460104E-1,-1.2957101E0,-1.3271433E-1,1.128327E0,7.2445786E-1,-4.8564813E-1,9.290286E-1,5.4702574E-1,-9.526835E-1,-6.599462E-2,-1.515954E0,8.197429E-1,3.1654176E-1,-4.3069816E-1,3.421067E-1,1.758351E-1,9.2777145E-1,3.9175683E-1,-9.364763E-1,1.0439672E0,6.5768415E-1,1.049925E0,8.239762E-1,3.1074506E-1,-5.6556845E-1,-2.427112E0,4.5955186E-3,-9.735801E-1,-1.6308746E0,-7.507317E-1,3.6031362E-1,1.0637691E0,6.161433E-1,-4.650097E-1,-5.440966E-1,7.3284286E-1,5.859582E-1,1.0794951E0,4.37442E-1,-9.720055E-1,-4.3127012E-1,-1.3932894E0,1.077817E0,4.0291823E-2,7.2247607E-1,-4.1083473E-1,9.633092E-1,1.126655E0,8.496982E-1,-9.9025506E-1,1.8741871E-1,3.57144E-1,-6.271567E-2,-3.4272978E-1,-4.7899905E-1,-9.9721074E-1,-2.3586178E-1,6.3696824E-2,-4.8048964E-1,-9.7563416E-1,-5.871883E-1,-3.7154164E-2,-6.566272E-2,3.0513108E-1,3.320758E-1,8.484008E-2,1.0441376E-1,2.3945294E-1,-1.0620673E-1,-9.5341116E-1,-6.0973886E-2,-3.0947587E-1,-4.018207E-1,2.3455842E-1,9.203802E-2,3.1530076E-1,2.786616E-1,3.4391567E-1,1.6518268E-1,-2.5441894E-1,-2.3768081E-1,2.7545044E-1,-2.6803562E-1,-5.95896E-1,2.525822E-1,3.4518087E-1,-4.7906038E-1,2.2127189E-1,-8.236187E-1,4.2450815E-2,3.2121533E-1,2.576352E-1,1.6029252E-1,3.3868697E-1,1.4183086E-1,2.7968124E-1,1.23336494E-1,-6.110433E-1,8.283439E-2,-3.5893068E-1],"categories":[],"categories_nodes":[],"categories_segments":[],"categories_sizes":[],"default_left":[0,0,0,0,0,0,0,0,0,0,0,0,0,0,0,0,0,0,0,0,0,0,0,0,0,0,0,0,0,0,0,0,0,0,0,0,0,0,0,0,0,0,0,0,0,0,0,0,0,0,0,0,0,0,0,0,0,0,0,0,0,0,0,0,0,0,0,0,0,0,0,0,0,0,0,0,0,0,0,0,0,0,0,0,0,0,0,0,0,0,0,0,0,0,0,0,0,0,0,0,0,0,0,0,0,0,0],"id":1,"left_children":[1,3,5,7,9,11,13,15,17,19,21,23,25,27,29,31,33,35,37,39,41,-1,-1,43,45,47,49,51,53,55,57,59,61,63,-1,65,67,69,71,73,75,77,79,81,83,85,-1,87,89,91,-1,93,95,97,99,101,103,105,-1,-1,-1,-1,-1,-1,-1,-1,-1,-1,-1,-1,-1,-1,-1,-1,-1,-1,-1,-1,-1,-1,-1,-1,-1,-1,-1,-1,-1,-1,-1,-1,-1,-1,-1,-1,-1,-1,-1,-1,-1,-1,-1,-1,-1,-1,-1,-1,-1],"loss_changes":[1.8696172E3,5.471074E2,2.9251318E2,2.4812836E2,2.206328E2,3.2601947E2,1.2295947E2,9.218558E1,3.1724817E2,2.2833405E2,3.166809E-1,3.054927E1,3.0038547E2,6.898047E1,9.189258E1,1.0130643E2,7.5913994E1,5.282727E1,6.8596535E0,1.5959059E2,1.3567659E2,0E0,0E0,1.404039E1,3.0465292E1,7.691293E1,2.9131622E0,4.580121E1,8.667969E0,3.1066284E1,8.2394325E1,2.9332962E1,2.2330963E1,5.467957E1,0E0,2.0085815E1,6.1861336E1,9.3231125E0,1.091568E0,2.374472E1,5.58153E1,1.551167E2,1.0339115E1,1.1253311E1,8.974304E-1,2.574791E1,0E0,7.912668E1,5.03757E1,6.7264557E-1,0E0,2.2889282E1,4.9664734E1,6.897278E0,4.4952393E-1,1.9452911E1,1.4794197E1,8.245123E1,0E0,0E0,0E0,0E0,0E0,0E0,0E0,0E0,0E0,0E0,0E0,0E0,0E0,0E0,0E0,0E0,0E0,0E0,0E0,0E0,0E0,0E0,0E0,0E0,0E0,0E0,0E0,0E0,0E0,0E0,0E0,0E0,0E0,0E0,0E0,0E0,0E0,0E0,0E0,0E0,0E0,0E0,0E0,0E0,0E0,0E0,0E0,0E0,0E0],"parents":[2147483647,0,0,1,1,2,2,3,3,4,4,5,5,6,6,7,7,8,8,9,9,10,10,11,11,12,12,13,13,14,14,15,15,16,16,17,17,18,18,19,19,20,20,23,23,24,24,25,25,26,26,27,27,28,28,29,29,30,30,31,31,32,32,33,33,35,35,36,36,37,37,38,38,39,39,40,40,41,41,42,42,43,43,44,44,45,45,47,47,48,48,49,49,51,51,52,52,53,53,54,54,55,55,56,56,57,57],"right_children":[2,4,6,8,10,12,14,16,18,20,22,24,26,28,30,32,34,36,38,40,42,-1,-1,44,46,48,50,52,54,56,58,60,62,64,-1,66,68,70,72,74,76,78,80,82,84,86,-1,88,90,92,-1,94,96,98,100,102,104,106,-1,-1,-1,-1,-1,-1,-1,-1,-1,-1,-1,-1,-1,-1,-1,-1,-1,-1,-1,-1,-1,-1,-1,-1,-1,-1,-1,-1,-1,-1,-1,-1,-1,-1,-1,-1,-1,-1,-1,-1,-1,-1,-1,-1,-1,-1,-1,-1,-1],"split_conditions":[4E1,9.9339E4,-3.8484324E4,2E0,3E0,2E0,1E0,9.092802E4,3E0,2.5780754E4,1.8834305E5,1E0,3E0,4.5E1,1.7509055E4,8.124579E4,7.92E2,-2.4709316E4,1.1925934E5,2E0,1.180977E5,3.421067E-1,1.758351E-1,4.6E1,7.321112E4,1E0,6.5E1,7.56E2,5.1E1,6.9E1,3E0,6.64E2,1E0,3.1E1,-9.735801E-1,8.908789E4,5E0,3.8E1,7.47E2,3.4E1,1.7970512E5,1E0,2.210225E4,1.5957675E5,1.0589055E5,6.2E1,-9.720055E-1,5.1E1,1E0,4.3E1,4.0291823E-2,-2.9518115E4,7.8E2,1.5915174E4,2.0025E3,9.486718E4,5.47E2,6.4E1,3.57144E-1,-6.271567E-2,-3.4272978E-1,-4.7899905E-1,-9.9721074E-1,-2.3586178E-1,6.3696824E-2,-4.8048964E-1,-9.7563416E-1,-5.871883E-1,-3.7154164E-2,-6.566272E-2,3.0513108E-1,3.320758E-1,8.484008E-2,1.0441376E-1,2.3945294E-1,-1.0620673E-1,-9.5341116E-1,-6.0973886E-2,-3.0947587E-1,-4.018207E-1,2.3455842E-1,9.203802E-2,3.1530076E-1,2.786616E-1,3.4391567E-1,1.6518268E-1,-2.5441894E-1,-2.3768081E-1,2.7545044E-1,-2.6803562E-1,-5.95896E-1,2.525822E-1,3.4518087E-1,-4.7906038E-1,2.2127189E-1,-8.236187E-1,4.2450815E-2,3.2121533E-1,2.576352E-1,1.6029252E-1,3.3868697E-1,1.4183086E-1,2.7968124E-1,1.23336494E-1,-6.110433E-1,8.283439E-2,-3.5893068E-1],"split_indices":[2,4,9,5,5,5,7,8,5,9,8,7,5,2,9,4,0,9,8,5,9,0,0,2,4,7,2,0,2,2,5,0,1,2,0,4,3,2,0,2,8,7,8,8,8,2,0,2,1,2,0,9,0,9,8,4,0,2,0,0,0,0,0,0,0,0,0,0,0,0,0,0,0,0,0,0,0,0,0,0,0,0,0,0,0,0,0,0,0,0,0,0,0,0,0,0,0,0,0,0,0,0,0,0,0,0,0],"split_type":[0,0,0,0,0,0,0,0,0,0,0,0,0,0,0,0,0,0,0,0,0,0,0,0,0,0,0,0,0,0,0,0,0,0,0,0,0,0,0,0,0,0,0,0,0,0,0,0,0,0,0,0,0,0,0,0,0,0,0,0,0,0,0,0,0,0,0,0,0,0,0,0,0,0,0,0,0,0,0,0,0,0,0,0,0,0,0,0,0,0,0,0,0,0,0,0,0,0,0,0,0,0,0,0,0,0,0],"sum_hessian":[7.466158E3,3.0469792E3,4.419179E3,1.1933336E3,1.8536455E3,8.8918085E2,3.5299983E3,5.1608777E2,6.772459E2,1.7036084E3,1.5003708E2,4.560008E2,4.3318005E2,2.1228179E3,1.4071807E3,1.7889467E2,3.3719308E2,6.1364185E2,6.360407E1,6.793389E2,1.0242695E3,1.4570163E2,4.3354497E0,2.8192676E2,1.7407405E2,3.3487045E2,9.8309616E1,6.5627954E2,1.4665382E3,6.466909E2,7.604897E2,1.427887E2,3.6105965E1,3.308458E2,6.3472934E0,5.325348E2,8.1107025E1,2.2923122E1,4.0680946E1,4.912383E2,1.8810066E2,9.337945E2,9.047499E1,8.816493E1,1.9376183E2,1.7278015E2,1.2939004E0,1.5993578E2,1.7493466E2,9.46044E1,3.7052147E0,6.1906506E2,3.7214485E1,6.952582E2,7.7128E2,6.381746E2,8.516323E0,6.680514E2,9.24383E1,8.909079E1,5.3697906E1,2.0191296E1,1.591467E1,6.824762E1,2.6259818E2,5.2505225E2,7.482555E0,2.700614E1,5.4100887E1,1.2535479E1,1.0387645E1,3.8155415E1,2.5255332E0,1.9983473E2,2.9140356E2,1.8179413E2,6.3065286E0,5.5038495E2,3.8340952E2,1.4824028E0,8.8992584E1,5.612998E1,3.2034954E1,6.416417E1,1.2959766E2,1.5932588E2,1.3454265E1,1.2650601E2,3.3429768E1,9.628618E1,7.864848E1,2.5272263E1,6.933214E1,3.325925E0,6.1573914E2,6.3604236E0,3.0854061E1,3.383407E2,3.569175E2,3.8876507E0,7.673924E2,1.1588885E2,5.2228577E2,3.9005332E0,4.61579E0,6.28565E2,3.94864E1],"tree_param":{"num_deleted":"0","num_feature":"10","num_nodes":"107","size_leaf_vector":"1"}},{"base_weights":[1.9584022E-1,-1.9528781E-1,6.235769E-1,-2.7894762E-1,9.814677E-1,8.2520735E-1,3.6042413E-1,-1.2582713E-3,-7.4207455E-1,5.664503E-1,1.082625E0,6.0661733E-1,9.9475193E-1,-8.529384E-2,5.6490326E-1,2.373593E-1,-2.6008964E-1,-1.1157895E0,-4.1507137E-1,-3.7316795E-2,2.982488E-1,3.29122E-1,9.8218285E-2,7.658713E-1,2.857469E-1,8.8711E-1,1.0628635E0,1.1371244E-1,-1.067697E0,8.0322677E-1,3.1314388E-1,2.720987E-2,4.8298618E-1,-4.297519E-1,3.8739574E-1,-8.627949E-1,-1.3614737E0,-9.1119E-2,-7.6668006E-1,-1.3263566E0,3.4168175E-1,8.8213736E-1,5.1037407E-1,-1.4512533E-1,3.369043E-1,9.698205E-1,6.4354324E-1,1.0709037E0,3.65566E-1,-4.379397E-2,3.212433E-1,-8.286293E-1,-9.953515E-1,8.1816643E-1,-6.964518E-1,4.5403448E-1,-2.5781998E-1,1.0673361E-1,-1.2283711E-1,1.24853194E-1,2.592582E-1,-3.0441368E-2,-2.7156353E-1,-1.13447435E-1,1.771986E-1,-4.8120347E-1,-1.9864236E-1,-1.3995478E-1,-4.2056674E-1,-2.9972443E-1,5.0645187E-2,-2.1083635E-1,-1.2377613E0,2.411226E-1,-8.165304E-1,2.6577622E-1,-1.1007422E-1,1.9340996E-1,2.9931352E-1,-1.194473E0,1.7085588E-1,-8.278386E-2,2.475724E-1,2.628207E-1,3.233662E-1,-7.451447E-2,2.5760093E-1,1.9813056E-1,3.2244217E-1,-1.7815545E-1,2.8644893E-1,1.20171405E-1,-1.8605201E-1,-1.704539E-1,-6.537593E-1,2.5019544E-1,-9.756438E-2,2.6728818E-1,-1.1099262E0,6.326373E-3,2.1531168E-1,-1.7485296E-2,-9.111048E-1],"categories":[],"categories_nodes":[],"categories_segments":[],"categories_sizes":[],"default_left":[0,0,0,0,0,0,0,0,0,0,0,0,0,0,0,0,0,0,0,0,0,0,0,0,0,0,0,0,0,0,0,0,0,0,0,0,0,0,0,0,0,0,0,0,0,0,0,0,0,0,0,0,0,0,0,0,0,0,0,0,0,0,0,0,0,0,0,0,0,0,0,0,0,0,0,0,0,0,0,0,0,0,0,0,0,0,0,0,0,0,0,0,0,0,0,0,0,0,0,0,0,0,0],"id":2,"left_children":[1,3,5,7,9,11,13,15,17,19,21,23,25,27,29,31,33,35,37,39,-1,-1,-1,41,43,45,47,49,51,53,55,57,59,61,63,65,67,69,71,73,75,77,79,81,-1,83,85,87,89,91,-1,93,-1,95,97,99,101,-1,-1,-1,-1,-1,-1,-1,-1,-1,-1,-1,-1,-1,-1,-1,-1,-1,-1,-1,-1,-1,-1,-1,-1,-1,-1,-1,-1,-1,-1,-1,-1,-1,-1,-1,-1,-1,-1,-1,-1,-1,-1,-1,-1,-1,-1],"loss_changes":[1.1481364E3,3.5322266E2,1.7362451E2,4.305667E2,9.386261E0,6.814795E1,1.2981007E2,1.293916E2,1.5290063E2,1.2632897E1,1.7185364E0,4.1320496E1,6.7053223E0,8.782965E1,5.8316986E1,5.6254726E1,1.10562874E2,3.5190735E1,7.634895E1,1.0805031E1,0E0,0E0,0E0,1.5670258E1,9.8010605E1,7.64209E0,3.1622925E0,5.64209E1,3.7954422E1,1.1790344E1,3.8434498E1,8.458402E1,1.2439362E1,1.2426985E2,3.2773945E1,4.221344E1,1.0019287E1,8.2848274E1,6.61207E1,1.7106705E1,6.946541E0,9.55368E0,4.7988197E1,2.3072657E1,0E0,2.1390686E0,2.0741985E1,2.9333496E-1,5.5103025E0,8.273925E1,0E0,2.3290459E1,0E0,9.248047E0,2.9422195E1,4.363961E1,5.245677E1,0E0,0E0,0E0,0E0,0E0,0E0,0E0,0E0,0E0,0E0,0E0,0E0,0E0,0E0,0E0,0E0,0E0,0E0,0E0,0E0,0E0,0E0,0E0,0E0,0E0,0E0,0E0,0E0,0E0,0E0,0E0,0E0,0E0,0E0,0E0,0E0,0E0,0E0,0E0,0E0,0E0,0E0,0E0,0E0,0E0,0E0],"parents":[2147483647,0,0,1,1,2,2,3,3,4,4,5,5,6,6,7,7,8,8,9,9,10,10,11,11,12,12,13,13,14,14,15,15,16,16,17,17,18,18,19,19,23,23,24,24,25,25,26,26,27,27,28,28,29,29,30,30,31,31,32,32,33,33,34,34,35,35,36,36,37,37,38,38,39,39,40,40,41,41,42,42,43,43,45,45,46,46,47,47,48,48,49,49,51,51,53,53,54,54,55,55,56,56],"right_children":[2,4,6,8,10,12,14,16,18,20,22,24,26,28,30,32,34,36,38,40,-1,-1,-1,42,44,46,48,50,52,54,56,58,60,62,64,66,68,70,72,74,76,78,80,82,-1,84,86,88,90,92,-1,94,-1,96,98,100,102,-1,-1,-1,-1,-1,-1,-1,-1,-1,-1,-1,-1,-1,-1,-1,-1,-1,-1,-1,-1,-1,-1,-1,-1,-1,-1,-1,-1,-1,-1,-1,-1,-1,-1,-1,-1,-1,-1,-1,-1,-1,-1,-1,-1,-1,-1],"split_conditions":[4.2E1,3E0,1E0,2E0,3.834002E4,4.8E1,9.305934E4,1E0,-3.6235008E4,1.3273006E5,1.8834305E5,2E0,5.2E1,6E1,3.3067785E4,1.2826086E5,1.7384489E5,1E0,1E0,3.3E1,2.982488E-1,3.29122E-1,9.8218285E-2,3.4380875E4,3E0,2E0,7.2E1,3E0,7.018148E4,1.9343789E5,5.8E1,2.5232623E4,8.623345E4,1E0,3.2E1,5.85E2,4.77E2,3.2E1,4.1E1,5.94E2,3E0,8.908789E4,1.0354924E5,9.051081E4,3.369043E-1,1.4197002E5,-2.8050016E4,3.08689E3,1.5404874E4,2E0,3.212433E-1,7.2E1,-9.953515E-1,7.2E1,5.15E2,4.8E1,7.56E2,1.0673361E-1,-1.2283711E-1,1.24853194E-1,2.592582E-1,-3.0441368E-2,-2.7156353E-1,-1.13447435E-1,1.771986E-1,-4.8120347E-1,-1.9864236E-1,-1.3995478E-1,-4.2056674E-1,-2.9972443E-1,5.0645187E-2,-2.1083635E-1,-1.2377613E0,2.411226E-1,-8.165304E-1,2.6577622E-1,-1.1007422E-1,1.9340996E-1,2.9931352E-1,-1.194473E0,1.7085588E-1,-8.278386E-2,2.475724E-1,2.628207E-1,3.233662E-1,-7.451447E-2,2.5760093E-1,1.9813056E-1,3.2244217E-1,-1.7815545E-1,2.8644893E-1,1.20171405E-1,-1.8605201E-1,-1.704539E-1,-6.537593E-1,2.5019544E-1,-9.756438E-2,2.6728818E-1,-1.1099262E0,6.326373E-3,2.1531168E-1,-1.7485296E-2,-9.111048E-1],"split_indices":[2,5,7,5,4,2,4,1,9,8,8,5,2,2,9,8,8,1,1,2,0,0,0,9,5,5,2,5,4,8,2,9,9,7,2,0,0,2,2,0,3,4,4,9,0,8,9,8,9,5,0,2,0,2,0,2,0,0,0,0,0,0,0,0,0,0,0,0,0,0,0,0,0,0,0,0,0,0,0,0,0,0,0,0,0,0,0,0,0,0,0,0,0,0,0,0,0,0,0,0,0,0,0],"split_type":[0,0,0,0,0,0,0,0,0,0,0,0,0,0,0,0,0,0,0,0,0,0,0,0,0,0,0,0,0,0,0,0,0,0,0,0,0,0,0,0,0,0,0,0,0,0,0,0,0,0,0,0,0,0,0,0,0,0,0,0,0,0,0,0,0,0,0,0,0,0,0,0,0,0,0,0,0,0,0,0,0,0,0,0,0,0,0,0,0,0,0,0,0,0,0,0,0,0,0,0,0,0,0],"sum_hessian":[6.8610205E3,3.5841606E3,3.27686E3,3.3469749E3,2.3718564E2,1.854096E3,1.4227642E3,2.0930137E3,1.2539613E3,4.7775806E1,1.8940984E2,8.119042E2,1.0421918E3,4.4762543E2,9.7513873E2,1.0890747E3,1.0039389E3,5.840587E2,6.699026E2,2.0189154E1,2.758665E1,1.8541011E2,3.999719E0,5.4167426E2,2.7022992E2,4.0932617E2,6.3286566E2,3.7295905E2,7.46664E1,4.998111E2,4.7532764E2,5.875225E2,5.0155212E2,7.9576013E2,2.081788E2,2.8997113E2,2.9408755E2,3.49319E2,3.205836E2,4.0192733E0,1.616988E1,3.7058432E2,1.7108995E2,1.7896043E2,9.126947E1,3.033371E2,1.0598909E2,6.251219E2,7.7437444E0,3.2107507E2,5.188398E1,6.873216E1,5.9342356E0,4.953311E2,4.480016E0,3.814148E2,9.391282E1,3.3536404E2,2.5215851E2,4.285398E2,7.3012344E1,4.7145676E2,3.2430334E2,4.349707E1,1.6468173E2,6.028476E1,2.2968637E2,1.3248831E1,2.8083875E2,7.711417E1,2.7220483E2,3.157865E2,4.79709E0,1.75867E0,2.2606032E0,9.004049E0,7.165831E0,1.2348116E2,2.4710315E2,1.3615988E0,1.6972836E2,1.5833058E2,2.0629854E1,1.6730292E2,1.3603418E2,2.0566172E1,8.542292E1,7.492088E0,6.176298E2,2.943485E0,4.800259E0,1.8147227E2,1.396028E2,5.88114E1,9.920758E0,4.8883875E2,6.492347E0,3.3910155E0,1.0890007E0,1.44775E2,2.3663982E2,8.8574486E1,5.3383384E0],"tree_param":{"num_deleted":"0","num_feature":"10","num_nodes":"103","size_leaf_vector":"1"}},{"base_weights":[1.6212848E-1,-1.1614501E-1,5.6155705E-1,-1.7782602E-1,9.195104E-1,7.694769E-1,3.1848353E-1,2.8219E-2,-5.227084E-1,4.7704563E-1,1.038337E0,5.983946E-1,9.7191906E-1,2.2740807E-1,1.0786275E0,2.1024442E-1,-2.0815761E-1,-8.5816973E-1,-2.7216983E-1,-4.3184746E-2,9.3721193E-1,1.0493803E0,9.9454105E-2,7.2243655E-1,3.2556093E-1,9.788793E-1,3.093575E-1,4.3496382E-1,-2.0982409E-1,3.3064958E-1,5.939722E-1,6.9476195E-2,4.4756672E-1,-4.294215E-1,1.09291315E-1,5.202528E-2,-9.023068E-1,-5.3955746E-1,-8.570262E-4,4.875139E-1,-9.339249E-1,5.6695235E-1,3.125903E-1,7.4815613E-1,3.1972963E-1,8.6893576E-1,4.5712188E-1,-1.0051154E-2,3.269836E-1,8.5945433E-1,1.0132165E0,2.4587119E-1,-1.8117166E-1,4.6818516E-1,-4.768224E-1,-7.6505786E-1,1.9376735E-1,3.5727836E-2,2.9592043E-1,-4.9397923E-2,8.920262E-2,8.513087E-2,2.1514876E-1,-2.220851E-1,-3.6610734E-2,9.769706E-2,-7.6426975E-2,-2.3368382E-1,3.1051978E-1,-3.1298316E-1,-2.0700805E-1,7.538485E-2,-2.080606E-1,-2.1059799E-1,7.687472E-2,-2.048575E-1,1.9404528E-1,1.833531E-1,-7.3018515E-1,2.634291E-1,7.5005847E-3,-3.92377E-2,2.938148E-1,2.0014311E-1,2.996965E-1,-3.2728694E-2,1.7016836E-1,1.2402532E-2,-7.869113E-1,7.0677966E-2,2.8315157E-1,1.7050843E-1,3.0540052E-1,2.0879409E-1,6.525201E-2,-4.871939E-1,-1.3281572E-1,7.8692436E-2,-9.920768E-1],"categories":[],"categories_nodes":[],"categories_segments":[],"categories_sizes":[],"default_left":[0,0,0,0,0,0,0,0,0,0,0,0,0,0,0,0,0,0,0,0,0,0,0,0,0,0,0,0,0,0,0,0,0,0,0,0,0,0,0,0,0,0,0,0,0,0,0,0,0,0,0,0,0,0,0,0,0,0,0,0,0,0,0,0,0,0,0,0,0,0,0,0,0,0,0,0,0,0,0,0,0,0,0,0,0,0,0,0,0,0,0,0,0,0,0,0,0,0,0],"id":3,"left_children":[1,3,5,7,9,11,13,15,17,19,21,23,25,27,29,31,33,35,37,39,41,43,-1,45,47,49,51,53,55,-1,57,59,61,63,65,67,69,71,73,75,77,79,-1,81,-1,83,85,87,-1,89,91,-1,-1,93,-1,95,97,-1,-1,-1,-1,-1,-1,-1,-1,-1,-1,-1,-1,-1,-1,-1,-1,-1,-1,-1,-1,-1,-1,-1,-1,-1,-1,-1,-1,-1,-1,-1,-1,-1,-1,-1,-1,-1,-1,-1,-1,-1,-1],"loss_changes":[7.0475104E2,2.3891606E2,1.3133197E2,2.507371E2,1.0558701E1,4.7992004E1,8.296677E1,9.511729E1,1.1067407E2,1.1138572E1,9.391632E-1,2.5577179E1,2.6520996E0,9.761325E1,8.093567E-1,4.168946E1,6.760429E1,2.2693481E1,5.4908337E1,1.1193278E1,3.651142E-1,1.663208E-3,0E0,1.9950775E1,6.1631905E1,1.7275391E0,4.2800426E0,4.977307E1,7.7815414E1,0E0,1.3944104E0,4.193336E1,2.0320557E1,5.4086273E1,3.1262056E1,2.2875956E1,1.5371002E1,4.6593575E1,6.808391E1,3.2181544E0,2.1938656E1,1.2643664E0,0E0,2.5074167E0,0E0,8.155701E0,1.1803986E1,2.2656567E1,0E0,7.573677E0,4.571228E-1,0E0,0E0,4.085054E1,0E0,3.972834E1,4.921581E1,0E0,0E0,0E0,0E0,0E0,0E0,0E0,0E0,0E0,0E0,0E0,0E0,0E0,0E0,0E0,0E0,0E0,0E0,0E0,0E0,0E0,0E0,0E0,0E0,0E0,0E0,0E0,0E0,0E0,0E0,0E0,0E0,0E0,0E0,0E0,0E0,0E0,0E0,0E0,0E0,0E0,0E0],"parents":[2147483647,0,0,1,1,2,2,3,3,4,4,5,5,6,6,7,7,8,8,9,9,10,10,11,11,12,12,13,13,14,14,15,15,16,16,17,17,18,18,19,19,20,20,21,21,23,23,24,24,25,25,26,26,27,27,28,28,30,30,31,31,32,32,33,33,34,34,35,35,36,36,37,37,38,38,39,39,40,40,41,41,43,43,45,45,46,46,47,47,49,49,50,50,53,53,55,55,56,56],"right_children":[2,4,6,8,10,12,14,16,18,20,22,24,26,28,30,32,34,36,38,40,42,44,-1,46,48,50,52,54,56,-1,58,60,62,64,66,68,70,72,74,76,78,80,-1,82,-1,84,86,88,-1,90,92,-1,-1,94,-1,96,98,-1,-1,-1,-1,-1,-1,-1,-1,-1,-1,-1,-1,-1,-1,-1,-1,-1,-1,-1,-1,-1,-1,-1,-1,-1,-1,-1,-1,-1,-1,-1,-1,-1,-1,-1,-1,-1,-1,-1,-1,-1,-1],"split_conditions":[4.3E1,3E0,1E0,2E0,-5.7341086E4,5E1,3E0,1E0,-4.7555348E4,1.3273006E5,1.9099895E5,2E0,7.2E1,2E0,6.5E1,3.8E1,1.3488995E5,1E0,3.6E1,6.52E2,1.6706695E5,2E0,9.9454105E-2,2.4523713E4,3E0,5.2E1,5.24E2,7.2E1,-1.5815946E4,3.3064958E-1,4E0,6.68E2,1.3002487E5,3.6E1,6.59E2,7.29E2,1.2601358E5,2.5E1,8.589102E4,5.83E2,2E0,1.4076556E5,3.125903E-1,1.275393E5,3.1972963E-1,9.766561E4,6.270338E4,1.9152131E5,3.269836E-1,5.358114E4,3.08689E3,2.4587119E-1,-1.8117166E-1,1.7509055E4,-4.768224E-1,4.8E1,1.8901614E5,3.5727836E-2,2.9592043E-1,-4.9397923E-2,8.920262E-2,8.513087E-2,2.1514876E-1,-2.220851E-1,-3.6610734E-2,9.769706E-2,-7.6426975E-2,-2.3368382E-1,3.1051978E-1,-3.1298316E-1,-2.0700805E-1,7.538485E-2,-2.080606E-1,-2.1059799E-1,7.687472E-2,-2.048575E-1,1.9404528E-1,1.833531E-1,-7.3018515E-1,2.634291E-1,7.5005847E-3,-3.92377E-2,2.938148E-1,2.0014311E-1,2.996965E-1,-3.2728694E-2,1.7016836E-1,1.2402532E-2,-7.869113E-1,7.0677966E-2,2.8315157E-1,1.7050843E-1,3.0540052E-1,2.0879409E-1,6.525201E-2,-4.871939E-1,-1.3281572E-1,7.8692436E-2,-9.920768E-1],"split_indices":[2,5,7,5,9,2,5,7,9,8,8,5,2,5,2,2,8,3,2,0,8,3,0,9,5,2,0,2,9,0,5,0,4,2,0,0,8,2,8,0,3,8,0,4,0,4,8,8,0,8,8,0,0,9,0,2,8,0,0,0,0,0,0,0,0,0,0,0,0,0,0,0,0,0,0,0,0,0,0,0,0,0,0,0,0,0,0,0,0,0,0,0,0,0,0,0,0,0,0],"split_type":[0,0,0,0,0,0,0,0,0,0,0,0,0,0,0,0,0,0,0,0,0,0,0,0,0,0,0,0,0,0,0,0,0,0,0,0,0,0,0,0,0,0,0,0,0,0,0,0,0,0,0,0,0,0,0,0,0,0,0,0,0,0,0,0,0,0,0,0,0,0,0,0,0,0,0,0,0,0,0,0,0,0,0,0,0,0,0,0,0,0,0,0,0,0,0,0,0,0,0],"sum_hessian":[6.338932E3,3.7365002E3,2.602432E3,3.5272542E3,2.0924603E2,1.4014747E3,1.2009572E3,2.2086477E3,1.3186064E3,4.5359436E1,1.638866E2,7.6171295E2,6.3976184E2,1.073622E3,1.27335205E2,1.24784E3,9.608076E2,5.6272064E2,7.5588586E2,2.1715563E1,2.3643875E1,1.6088824E2,2.9983513E0,5.2250964E2,2.3920331E2,6.3263855E2,7.1232505E0,7.28029E2,3.4559293E2,1.2022235E2,7.112856E0,7.840638E2,4.6377625E2,5.6597015E2,3.9483746E2,2.6017109E1,5.367035E2,3.801988E2,3.7568707E2,1.38916645E1,7.823899E0,6.628291E0,1.7015583E1,1.0707173E1,1.5018106E2,3.351656E2,1.8734402E2,1.6690746E2,7.229586E1,1.470898E2,4.8554877E2,4.6359005E0,2.4873502E0,7.170307E2,1.0998244E1,1.4509097E2,2.0050195E2,3.808119E0,3.3047369E0,3.868482E2,3.9721555E2,2.8977277E2,1.740035E2,2.8069363E2,2.8527652E2,2.4771677E2,1.471207E2,1.4211576E1,1.1805532E1,3.201707E2,2.1653282E2,6.1858345E1,3.1834045E2,1.0033635E2,2.7535074E2,1.270564E0,1.26211E1,4.145934E0,3.6779652E0,3.816759E0,2.811532E0,2.3205497E0,8.386624E0,1.3375638E2,2.0140923E2,3.0501244E1,1.5684279E2,1.6465318E2,2.254265E0,1.7976862E1,1.2911295E2,6.442024E0,4.7910675E2,3.7473096E2,3.4229977E2,3.849007E1,1.066009E2,1.9755898E2,2.9429805E0],"tree_param":{"num_deleted":"0","num_feature":"10","num_nodes":"99","size_leaf_vector":"1"}},{"base_weights":[1.3218209E-1,-7.99836E-2,4.7482303E-1,-1.251089E-1,8.584892E-1,6.7980224E-1,2.5550422E-1,-3.3829126E-1,5.557934E-2,4.119873E-1,9.9448967E-1,5.039715E-1,9.0938956E-1,1.7749235E-1,1.0323117E0,-1.2253391E-1,-5.8929574E-1,3.359774E-1,-1.3176923E-1,-3.250835E-2,8.7596387E-1,1.0082229E0,8.277163E-2,6.2686765E-1,2.582698E-1,9.23331E-1,4.268692E-1,2.7696964E-1,-4.0689188E-1,3.19077E-1,5.062406E-1,7.0839666E-2,-5.3871334E-1,-1.0322516E0,-4.7165766E-1,5.179955E-1,-3.1369247E-2,-2.722245E-1,5.7644576E-1,3.8481042E-1,-6.495522E-1,4.9523607E-1,2.9976466E-1,6.7105967E-1,3.085393E-1,7.6584953E-1,3.2584724E-1,-1.0595343E-2,3.1696826E-1,8.1952006E-1,9.944841E-1,8.24841E-1,-4.848762E-1,4.2537042E-1,-2.7434047E-2,-2.8562388E-1,-7.732529E-1,2.6144895E-1,2.0329613E-2,-2.5688462E-2,1.279245E-1,-4.2325976E-1,2.621861E-2,-2.5708255E-1,-6.7133427E-1,-6.8828344E-2,-2.383882E-1,8.601031E-2,1.9623248E-1,2.42785E-1,-6.437511E-2,-6.889939E-2,-8.6519957E-1,-2.3900168E-1,1.9218478E-1,2.6050606E-1,-3.1741425E-2,1.5619181E-1,-4.5791793E-1,2.4509959E-1,5.8722543E-3,-3.0199341E-2,2.7886832E-1,1.6445647E-1,2.7855858E-1,-6.791544E-1,1.1130931E-1,8.010761E-3,-8.119742E-1,1.17732875E-1,2.706588E-1,1.0487708E-1,3.001059E-1,2.6373005E-1,2.8116098E-2,6.9012135E-2,2.1619244E-1,8.460882E-2,-1.4669545E-1,-2.0289077E-1,2.1158478E-1],"categories":[],"categories_nodes":[],"categories_segments":[],"categories_sizes":[],"default_left":[0,0,0,0,0,0,0,0,0,0,0,0,0,0,0,0,0,0,0,0,0,0,0,0,0,0,0,0,0,0,0,0,0,0,0,0,0,0,0,0,0,0,0,0,0,0,0,0,0,0,0,0,0,0,0,0,0,0,0,0,0,0,0,0,0,0,0,0,0,0,0,0,0,0,0,0,0,0,0,0,0,0,0,0,0,0,0,0,0,0,0,0,0,0,0,0,0,0,0,0,0],"id":4,"left_children":[1,3,5,7,9,11,13,15,17,19,21,23,25,27,29,31,33,35,37,39,41,43,-1,45,47,49,51,53,55,-1,57,59,61,63,65,67,69,71,73,75,77,79,-1,81,-1,83,85,87,-1,89,91,93,-1,95,97,99,-1,-1,-1,-1,-1,-1,-1,-1,-1,-1,-1,-1,-1,-1,-1,-1,-1,-1,-1,-1,-1,-1,-1,-1,-1,-1,-1,-1,-1,-1,-1,-1,-1,-1,-1,-1,-1,-1,-1,-1,-1,-1,-1,-1,-1],"loss_changes":[4.283897E2,1.5425177E2,1.01131805E2,1.3382617E2,9.738327E0,4.6538696E1,6.588595E1,8.623776E1,9.885871E1,8.427412E0,9.790039E-1,1.981343E1,2.9940796E0,5.7778107E1,1.0953445E0,6.911254E1,3.788716E1,5.0411285E1,1.1239469E2,5.8541017E0,4.4185734E-1,1.6036224E-1,0E0,1.816948E1,4.7716263E1,2.7945862E0,1.4345903E1,3.8330666E1,3.7352455E1,0E0,1.1389738E0,3.268926E1,1.4887172E2,3.05643E1,4.548471E1,1.5680588E1,3.8780464E1,1.0407726E2,1.6992786E1,3.320811E0,1.0185877E1,1.034606E0,0E0,2.075657E0,0E0,1.0129883E1,1.731584E1,1.6890574E1,0E0,6.8635254E0,7.298889E-1,4.7524166E-1,0E0,3.272719E1,3.998048E1,5.3965218E1,0E0,0E0,0E0,0E0,0E0,0E0,0E0,0E0,0E0,0E0,0E0,0E0,0E0,0E0,0E0,0E0,0E0,0E0,0E0,0E0,0E0,0E0,0E0,0E0,0E0,0E0,0E0,0E0,0E0,0E0,0E0,0E0,0E0,0E0,0E0,0E0,0E0,0E0,0E0,0E0,0E0,0E0,0E0,0E0,0E0],"parents":[2147483647,0,0,1,1,2,2,3,3,4,4,5,5,6,6,7,7,8,8,9,9,10,10,11,11,12,12,13,13,14,14,15,15,16,16,17,17,18,18,19,19,20,20,21,21,23,23,24,24,25,25,26,26,27,27,28,28,30,30,31,31,32,32,33,33,34,34,35,35,36,36,37,37,38,38,39,39,40,40,41,41,43,43,45,45,46,46,47,47,49,49,50,50,51,51,53,53,54,54,55,55],"right_children":[2,4,6,8,10,12,14,16,18,20,22,24,26,28,30,32,34,36,38,40,42,44,-1,46,48,50,52,54,56,-1,58,60,62,64,66,68,70,72,74,76,78,80,-1,82,-1,84,86,88,-1,90,92,94,-1,96,98,100,-1,-1,-1,-1,-1,-1,-1,-1,-1,-1,-1,-1,-1,-1,-1,-1,-1,-1,-1,-1,-1,-1,-1,-1,-1,-1,-1,-1,-1,-1,-1,-1,-1,-1,-1,-1,-1,-1,-1,-1,-1,-1,-1,-1,-1],"split_conditions":[4.3E1,3E0,1E0,1.0781267E5,-5.7341086E4,5E1,3E0,2E0,3.558503E4,1.3273006E5,1.9099895E5,2E0,6.9E1,6.2E1,6.5E1,9.563624E3,5.007294E4,2E0,1.07313695E5,6.52E2,1.6706695E5,2E0,8.277163E-2,3.4930574E4,3E0,5.4E1,1E0,2E0,1.4654778E5,3.19077E-1,6.25E2,-2.1512076E4,3.6E1,8.976384E4,1E0,3.4E1,1.1046325E5,1.6936244E5,2.823825E4,1E0,2E0,1.4076556E5,2.9976466E-1,1.275393E5,3.085393E-1,9.641809E4,1.0257504E5,8.34E2,3.1696826E-1,5.439856E4,3.08689E3,9E0,-4.848762E-1,1.401361E5,1E0,1.3078871E5,-7.732529E-1,2.6144895E-1,2.0329613E-2,-2.5688462E-2,1.279245E-1,-4.2325976E-1,2.621861E-2,-2.5708255E-1,-6.7133427E-1,-6.8828344E-2,-2.383882E-1,8.601031E-2,1.9623248E-1,2.42785E-1,-6.437511E-2,-6.889939E-2,-8.6519957E-1,-2.3900168E-1,1.9218478E-1,2.6050606E-1,-3.1741425E-2,1.5619181E-1,-4.5791793E-1,2.4509959E-1,5.8722543E-3,-3.0199341E-2,2.7886832E-1,1.6445647E-1,2.7855858E-1,-6.791544E-1,1.1130931E-1,8.010761E-3,-8.119742E-1,1.17732875E-1,2.706588E-1,1.0487708E-1,3.001059E-1,2.6373005E-1,2.8116098E-2,6.9012135E-2,2.1619244E-1,8.460882E-2,-1.4669545E-1,-2.0289077E-1,2.1158478E-1],"split_indices":[2,5,7,4,9,2,5,5,9,8,8,5,2,2,2,9,8,5,9,0,8,3,0,9,5,2,1,5,4,0,0,9,2,4,7,2,4,4,8,7,3,8,0,4,0,4,4,0,0,8,8,3,0,8,1,4,0,0,0,0,0,0,0,0,0,0,0,0,0,0,0,0,0,0,0,0,0,0,0,0,0,0,0,0,0,0,0,0,0,0,0,0,0,0,0,0,0,0,0,0,0],"split_type":[0,0,0,0,0,0,0,0,0,0,0,0,0,0,0,0,0,0,0,0,0,0,0,0,0,0,0,0,0,0,0,0,0,0,0,0,0,0,0,0,0,0,0,0,0,0,0,0,0,0,0,0,0,0,0,0,0,0,0,0,0,0,0,0,0,0,0,0,0,0,0,0,0,0,0,0,0,0,0,0,0,0,0,0,0,0,0,0,0,0,0,0,0,0,0,0,0,0,0,0,0],"sum_hessian":[5.891317E3,3.6388696E3,2.252447E3,3.4727534E3,1.6611635E2,1.1632002E3,1.089247E3,1.5927264E3,1.880027E3,3.972496E1,1.2639138E2,6.6052704E2,5.0267316E2,9.909573E2,9.828965E1,8.5730023E2,7.3542615E2,7.526975E2,1.1273295E3,2.076334E1,1.8961618E1,1.23625626E2,2.7657578E0,4.3926324E2,2.2126381E2,4.8766937E2,1.500377E1,8.4725806E2,1.4369917E2,9.1809235E1,6.4804163E0,5.858983E2,2.7140195E2,1.5269434E2,5.827318E2,5.03036E2,2.4966147E2,9.412698E2,1.8605974E2,1.26107855E1,8.1525545E0,5.864403E0,1.3097217E1,8.935668E0,1.1468996E2,2.9945837E2,1.3980487E2,1.6625552E2,5.500828E1,2.0341249E2,2.8425687E2,1.3056776E1,1.9469932E0,5.693131E2,2.7794498E2,1.3716748E2,6.531682E0,2.9966247E0,3.4837914E0,4.073893E2,1.7850899E2,1.1289245E2,1.585095E2,1.3480206E2,1.789227E1,3.339654E2,2.4876642E2,1.8750974E2,3.155263E2,4.4063847E1,2.0559763E2,9.272478E2,1.4021923E1,7.797306E0,1.7826242E2,5.9634085E0,6.647377E0,3.6661334E0,4.486421E0,3.070054E0,2.7943482E0,2.3953197E0,6.540349E0,1.2995328E2,1.6950511E2,1.555383E0,1.382495E2,1.6496341E2,1.2921072E0,3.3923138E1,1.6948936E2,3.1097744E0,2.811471E2,1.1966312E1,1.0904641E0,3.437151E2,2.2559802E2,1.6661852E2,1.1132646E2,9.860757E1,3.8559914E1],"tree_param":{"num_deleted":"0","num_feature":"10","num_nodes":"101","size_leaf_vector":"1"}},{"base_weights":[1.076064E-1,-3.743627E-2,4.4628936E-1,-7.3794276E-2,8.3629185E-1,6.809154E-1,2.3472176E-1,1.0261393E-1,-2.5072423E-1,4.5352343E-1,9.686218E-1,5.215312E-1,8.759876E-1,-4.8114136E-2,4.197161E-1,-4.9681343E-2,3.0563578E-1,-1.1380454E-1,-4.9020645E-1,1.5959926E-1,8.3601445E-1,2.972282E-1,3.8050485E-1,1.9819033E-1,6.382343E-1,8.958307E-1,3.518618E-1,-6.904855E-1,1.2758201E-1,7.050344E-1,2.3475902E-1,-6.6633284E-1,2.137116E-2,2.337187E-1,7.9318315E-1,-2.0572315E-1,3.610298E-1,-7.895721E-1,-2.4746339E-1,-8.40104E-1,3.706242E-1,8.8160074E-1,1.5615772E-2,2.3052984E-1,-3.7389647E-2,5.825773E-1,-4.5358697E-1,8.1300753E-1,4.6249264E-1,7.8580666E-1,9.513353E-1,7.441676E-1,-9.703274E-1,-1.754586E-1,-1.2679484E0,1.7640482E-1,-4.5959815E-1,2.1860941E-1,7.5761414E-1,4.8264003E-1,-9.102607E-2,-2.654212E-1,1.8645741E-1,-6.546972E-2,4.1892722E-2,7.715057E-2,-7.723595E-1,2.9399574E-1,1.06654674E-1,-2.3924845E-4,-1.4600067E-1,1.2172109E-1,-9.467276E-1,-2.161668E-1,-4.8541376E-1,3.8947206E-2,-1.9609162E-1,1.769431E-1,-4.348732E-1,1.5506753E-1,-3.3630848E-1,1.5573214E-1,2.921447E-1,1.9142924E-1,-2.9858473E-1,6.949521E-2,-4.4842374E-1,-1.2870055E-1,2.4881731E-1,-6.1042666E-2,1.6464216E-1,1.5155017E-1,2.653166E-1,8.750754E-2,2.8760013E-1,1.7491357E-2,2.4098839E-1,-7.42219E-1,2.0426993E-1,3.9362773E-2,-4.495696E-1,-3.14021E-1,-9.7577983E-1,1.1499906E-1,-2.194401E-2,1.8949966E-1,-7.3405784E-1,2.5311023E-1,1.6851643E-1,-7.829795E-2,1.7951529E-1,-1.2280818E0,-3.927029E-3],"categories":[],"categories_nodes":[],"categories_segments":[],"categories_sizes":[],"default_left":[0,0,0,0,0,0,0,0,0,0,0,0,0,0,0,0,0,0,0,0,0,0,0,0,0,0,0,0,0,0,0,0,0,0,0,0,0,0,0,0,0,0,0,0,0,0,0,0,0,0,0,0,0,0,0,0,0,0,0,0,0,0,0,0,0,0,0,0,0,0,0,0,0,0,0,0,0,0,0,0,0,0,0,0,0,0,0,0,0,0,0,0,0,0,0,0,0,0,0,0,0,0,0,0,0,0,0,0,0,0,0,0,0],"id":5,"left_children":[1,3,5,7,9,11,13,15,17,19,21,23,25,27,29,31,33,35,37,39,41,-1,43,45,47,49,51,53,55,57,59,61,63,65,67,69,71,73,75,77,79,81,-1,-1,-1,83,85,87,89,91,93,95,97,99,101,103,-1,105,107,109,111,-1,-1,-1,-1,-1,-1,-1,-1,-1,-1,-1,-1,-1,-1,-1,-1,-1,-1,-1,-1,-1,-1,-1,-1,-1,-1,-1,-1,-1,-1,-1,-1,-1,-1,-1,-1,-1,-1,-1,-1,-1,-1,-1,-1,-1,-1,-1,-1,-1,-1,-1,-1],"loss_changes":[2.7129083E2,1.2291686E2,8.203821E1,1.1594041E2,7.3906174E0,2.3938782E1,4.5659855E1,5.7535866E1,6.0751244E1,4.5426254E0,1.1071854E0,1.6261475E1,3.3388977E0,3.9117878E1,2.7668839E1,4.6625614E1,2.7778023E1,5.1628082E1,4.88031E1,5.5338597E0,5.91589E-1,0E0,1.2242546E0,2.9483612E1,9.411728E0,1.3158264E0,8.224319E0,2.1912846E1,2.2340763E1,5.127205E0,2.6007366E1,3.1474396E1,2.7090256E1,4.652345E1,7.999069E0,5.7011024E1,3.1457E1,1.607132E1,5.7368538E1,4.8820767E0,5.1906214E0,5.588627E-2,0E0,0E0,0E0,7.1002045E0,3.1614864E1,3.5800781E0,9.378525E0,2.8467636E0,7.8356934E-1,4.2844248E-1,1.0979814E1,1.6630072E1,1.1928982E1,1.3738241E1,0E0,2.5319122E1,2.6686478E0,1.5884953E1,4.3544945E1,0E0,0E0,0E0,0E0,0E0,0E0,0E0,0E0,0E0,0E0,0E0,0E0,0E0,0E0,0E0,0E0,0E0,0E0,0E0,0E0,0E0,0E0,0E0,0E0,0E0,0E0,0E0,0E0,0E0,0E0,0E0,0E0,0E0,0E0,0E0,0E0,0E0,0E0,0E0,0E0,0E0,0E0,0E0,0E0,0E0,0E0,0E0,0E0,0E0,0E0,0E0,0E0],"parents":[2147483647,0,0,1,1,2,2,3,3,4,4,5,5,6,6,7,7,8,8,9,9,10,10,11,11,12,12,13,13,14,14,15,15,16,16,17,17,18,18,19,19,20,20,22,22,23,23,24,24,25,25,26,26,27,27,28,28,29,29,30,30,31,31,32,32,33,33,34,34,35,35,36,36,37,37,38,38,39,39,40,40,41,41,45,45,46,46,47,47,48,48,49,49,50,50,51,51,52,52,53,53,54,54,55,55,57,57,58,58,59,59,60,60],"right_children":[2,4,6,8,10,12,14,16,18,20,22,24,26,28,30,32,34,36,38,40,42,-1,44,46,48,50,52,54,56,58,60,62,64,66,68,70,72,74,76,78,80,82,-1,-1,-1,84,86,88,90,92,94,96,98,100,102,104,-1,106,108,110,112,-1,-1,-1,-1,-1,-1,-1,-1,-1,-1,-1,-1,-1,-1,-1,-1,-1,-1,-1,-1,-1,-1,-1,-1,-1,-1,-1,-1,-1,-1,-1,-1,-1,-1,-1,-1,-1,-1,-1,-1,-1,-1,-1,-1,-1,-1,-1,-1,-1,-1,-1,-1],"split_conditions":[4.5E1,3E0,1E0,1E0,-5.7341086E4,5.1E1,1.0257504E5,1.3078915E5,2E0,1.3273006E5,1.8834305E5,8.194776E4,6.9E1,6.182041E4,2.1406504E4,2.8E1,8.623345E4,1.77028E5,-1.1653786E4,3.3E1,7.24E2,2.972282E-1,6.21E2,1E0,2.5780754E4,5.4E1,1E0,5.4E1,7.2E1,5.39E2,1E0,9.6111305E4,8.564681E4,1.5565545E5,3.7E1,1E0,1E1,-2.6470547E4,2.6623492E4,5.94E2,1.1791663E5,1.6319198E5,1.5615772E-2,2.3052984E-1,-3.7389647E-2,7.43232E4,2E0,5.03639E3,4.932403E4,7.485093E4,3.08689E3,3E0,7.13E2,4.585955E4,8.908789E4,1E0,-4.5959815E-1,7E0,2E0,1.2039299E5,3.1971334E4,-2.654212E-1,1.8645741E-1,-6.546972E-2,4.1892722E-2,7.715057E-2,-7.723595E-1,2.9399574E-1,1.06654674E-1,-2.3924845E-4,-1.4600067E-1,1.2172109E-1,-9.467276E-1,-2.161668E-1,-4.8541376E-1,3.8947206E-2,-1.9609162E-1,1.769431E-1,-4.348732E-1,1.5506753E-1,-3.3630848E-1,1.5573214E-1,2.921447E-1,1.9142924E-1,-2.9858473E-1,6.949521E-2,-4.4842374E-1,-1.2870055E-1,2.4881731E-1,-6.1042666E-2,1.6464216E-1,1.5155017E-1,2.653166E-1,8.750754E-2,2.8760013E-1,1.7491357E-2,2.4098839E-1,-7.42219E-1,2.0426993E-1,3.9362773E-2,-4.495696E-1,-3.14021E-1,-9.7577983E-1,1.1499906E-1,-2.194401E-2,1.8949966E-1,-7.3405784E-1,2.5311023E-1,1.6851643E-1,-7.829795E-2,1.7951529E-1,-1.2280818E0,-3.927029E-3],"split_indices":[2,5,7,1,9,2,4,8,5,8,8,4,2,8,9,2,9,8,9,2,0,0,0,1,9,2,1,2,2,0,1,9,4,4,2,7,3,9,9,0,8,8,0,0,0,4,5,8,8,8,8,3,0,8,4,1,0,3,5,4,9,0,0,0,0,0,0,0,0,0,0,0,0,0,0,0,0,0,0,0,0,0,0,0,0,0,0,0,0,0,0,0,0,0,0,0,0,0,0,0,0,0,0,0,0,0,0,0,0,0,0,0,0],"split_type":[0,0,0,0,0,0,0,0,0,0,0,0,0,0,0,0,0,0,0,0,0,0,0,0,0,0,0,0,0,0,0,0,0,0,0,0,0,0,0,0,0,0,0,0,0,0,0,0,0,0,0,0,0,0,0,0,0,0,0,0,0,0,0,0,0,0,0,0,0,0,0,0,0,0,0,0,0,0,0,0,0,0,0,0,0,0,0,0,0,0,0,0,0,0,0,0,0,0,0,0,0,0,0,0,0,0,0,0,0,0,0,0,0],"sum_hessian":[5.5212896E3,3.8663816E3,1.6549078E3,3.7127983E3,1.5358325E2,7.836408E2,8.71267E2,1.8593507E3,1.8534478E3,4.059324E1,1.1299001E2,4.3329205E2,3.5034872E2,3.448181E2,5.264489E2,1.0628312E3,7.965194E2,1.1801776E3,6.7327014E2,2.3755587E1,1.6837652E1,1.0823117E2,4.758839E0,1.15628006E2,3.1766403E2,3.3688528E2,1.3463459E1,7.342722E1,2.713909E2,2.0594395E2,3.2050494E2,1.08944466E2,9.538868E2,6.95419E2,1.011004E2,9.892458E2,1.9093181E2,3.004652E2,3.7280493E2,3.620914E0,2.0134672E1,1.5794669E1,1.0429835E0,2.3968804E0,2.3619587E0,7.280014E1,4.282786E1,1.5745282E2,1.6021123E2,1.1804611E2,2.1883917E2,1.0719927E1,2.7435317E0,3.950098E1,3.3926243E1,2.6450323E2,6.8876743E0,2.05929E1,1.8535106E2,1.817414E2,1.3876355E2,9.34154E1,1.5529064E1,3.149633E2,6.3892346E2,6.90561E2,4.8580017E0,6.998901E1,3.1111391E1,5.725921E2,4.1665366E2,1.8940858E2,1.5232272E0,2.7908566E2,2.137956E1,1.9362825E2,1.7917668E2,1.0917557E0,2.529158E0,1.8931751E1,1.2029215E0,4.547585E0,1.1247085E1,7.090094E1,1.8991998E0,2.6297617E1,1.6530243E1,1.7220441E0,1.5573077E2,1.8226385E1,1.4198485E2,3.2279213E1,8.57669E1,2.8539126E0,2.1598526E2,1.0084276E0,9.711499E0,1.1750876E0,1.5684441E0,3.2799572E1,6.7014074E0,3.1898241E1,2.0280023E0,1.4430829E2,1.2019494E2,1.8490522E1,2.102377E0,1.2646715E2,5.888391E1,2.4308605E1,1.5743279E2,1.6662115E0,1.3709734E2],"tree_param":{"num_deleted":"0","num_feature":"10","num_nodes":"113","size_leaf_vector":"1"}},{"base_weights":[8.502231E-2,-1.4745659E-1,2.3121272E-1,-2.1766311E-1,2.6250893E-1,1.8187001E-1,9.595214E-1,-6.142378E-2,-4.111114E-1,6.410965E-1,4.2170856E-2,3.363107E-1,2.0219436E-2,6.686943E-1,3.0946842E-1,1.4007133E-1,-2.7510837E-1,-3.761689E-1,-1.8670449E0,-5.555404E-1,7.565675E-1,-8.6847055E-1,2.6195785E-1,2.2184275E-1,6.735803E-1,1.8625353E-1,-1.5338954E-1,-1.516625E-1,7.291298E-1,2.4176101E-1,-4.0069887E-1,-9.8012614E-1,-1.3202105E-1,-9.7539276E-1,-3.084355E-1,-6.71855E-1,2.0876624E-1,8.171726E-1,-7.631797E-1,-6.59361E-1,-1.4118184E-1,4.9134406E-1,-2.5035924E-1,-7.5662E-1,2.5456855E-1,7.9262805E-1,2.4389838E-1,-2.2284063E-3,3.4627452E-1,-1.11977935E-1,-2.0840402E0,3.338795E-1,8.683124E-1,8.647343E-2,-3.4473518E-1,-3.4828195E-1,5.555932E-3,-1.0368171E-1,-4.1781995E-1,1.3459326E-2,-1.7865478E-1,-6.1402928E-2,-5.9814113E-1,-1.8009308E-1,-1.5301101E-2,4.1092706E-1,1.7082873E-1,-9.0212464E-1,5.5542845E-2,-6.382998E-1,1.6928089E-1,-6.9719404E-1,1.2979146E-2,-1.5497878E-1,-6.920813E-1,8.234629E-2,-1.7302424E-1,2.1021058E-1,2.7880615E-1,-1.3325422E-1,1.7699942E-1,-1.0867794E-1,7.114272E-2,1.4978881E-1,3.4573476E-3,1.9386735E-2,-1.4656185E-1,1.9017108E-1,-7.1752715E-1,1.5099075E-1,-2.2194111E-1,1.6518632E-1,2.9175806E-1],"categories":[],"categories_nodes":[],"categories_segments":[],"categories_sizes":[],"default_left":[0,0,0,0,0,0,0,0,0,0,0,0,0,0,0,0,0,0,0,0,0,0,0,0,0,0,0,0,0,0,0,0,0,0,0,0,0,0,0,0,0,0,0,0,0,0,0,0,0,0,0,0,0,0,0,0,0,0,0,0,0,0,0,0,0,0,0,0,0,0,0,0,0,0,0,0,0,0,0,0,0,0,0,0,0,0,0,0,0,0,0,0,0],"id":6,"left_children":[1,3,5,7,9,11,13,15,17,19,21,23,25,27,-1,29,31,33,35,-1,37,39,41,43,45,47,49,-1,51,53,55,57,59,61,63,-1,-1,65,-1,-1,67,69,71,73,75,77,79,81,83,85,87,89,91,-1,-1,-1,-1,-1,-1,-1,-1,-1,-1,-1,-1,-1,-1,-1,-1,-1,-1,-1,-1,-1,-1,-1,-1,-1,-1,-1,-1,-1,-1,-1,-1,-1,-1,-1,-1,-1,-1,-1,-1],"loss_changes":[1.7859863E2,5.8456356E1,1.157585E2,5.2349876E1,2.4757557E1,7.545298E1,3.5939178E0,4.1364635E1,3.8677765E1,3.284518E1,3.8031433E1,5.9524475E1,4.262841E1,3.4509506E0,0E0,2.729855E1,4.689581E1,3.0431274E1,1.8636646E1,0E0,2.3103561E1,3.542034E1,1.8094555E1,3.719327E1,1.9816544E1,2.279864E1,5.7572033E1,0E0,2.005066E0,2.7290798E1,2.5094776E1,2.0068237E1,3.1891455E1,5.9585274E1,5.1194473E1,0E0,0E0,1.345356E1,0E0,0E0,2.3895802E1,2.1439642E1,2.9300135E1,1.2817738E1,1.8685646E1,3.193161E0,2.0816626E1,3.0082443E1,2.0934917E1,4.717282E1,1.4166672E1,2.6442363E0,4.6531105E-1,0E0,0E0,0E0,0E0,0E0,0E0,0E0,0E0,0E0,0E0,0E0,0E0,0E0,0E0,0E0,0E0,0E0,0E0,0E0,0E0,0E0,0E0,0E0,0E0,0E0,0E0,0E0,0E0,0E0,0E0,0E0,0E0,0E0,0E0,0E0,0E0,0E0,0E0,0E0,0E0],"parents":[2147483647,0,0,1,1,2,2,3,3,4,4,5,5,6,6,7,7,8,8,9,9,10,10,11,11,12,12,13,13,15,15,16,16,17,17,18,18,20,20,21,21,22,22,23,23,24,24,25,25,26,26,28,28,29,29,30,30,31,31,32,32,33,33,34,34,37,37,40,40,41,41,42,42,43,43,44,44,45,45,46,46,47,47,48,48,49,49,50,50,51,51,52,52],"right_children":[2,4,6,8,10,12,14,16,18,20,22,24,26,28,-1,30,32,34,36,-1,38,40,42,44,46,48,50,-1,52,54,56,58,60,62,64,-1,-1,66,-1,-1,68,70,72,74,76,78,80,82,84,86,88,90,92,-1,-1,-1,-1,-1,-1,-1,-1,-1,-1,-1,-1,-1,-1,-1,-1,-1,-1,-1,-1,-1,-1,-1,-1,-1,-1,-1,-1,-1,-1,-1,-1,-1,-1,-1,-1,-1,-1,-1,-1],"split_conditions":[3.7E1,1.5177262E5,3E0,1E0,1E0,1E0,-5.7341086E4,1E0,1.4654778E5,3.589675E4,2.9E1,4.8E1,1E0,3.8E1,3.0946842E-1,1.642237E5,5.007294E4,2.6E1,3E0,-5.555404E-1,8.03E2,9.6111305E4,6.75E2,1.300789E4,2E0,1.1091615E5,1E1,-1.516625E-1,8.287264E4,7.587043E4,1.0192851E5,2.9E1,3.7380125E4,8.442162E4,1.0354924E5,-6.71855E-1,2.0876624E-1,1.5565545E5,-7.631797E-1,-6.59361E-1,5.8E2,4.83E2,5.358114E4,7.32E2,8.23E2,1.4197002E5,-1.7084637E4,1.0573632E5,6.77E2,2E0,4.39E2,8.020438E4,4.3E1,8.647343E-2,-3.4473518E-1,-3.4828195E-1,5.555932E-3,-1.0368171E-1,-4.1781995E-1,1.3459326E-2,-1.7865478E-1,-6.1402928E-2,-5.9814113E-1,-1.8009308E-1,-1.5301101E-2,4.1092706E-1,1.7082873E-1,-9.0212464E-1,5.5542845E-2,-6.382998E-1,1.6928089E-1,-6.9719404E-1,1.2979146E-2,-1.5497878E-1,-6.920813E-1,8.234629E-2,-1.7302424E-1,2.1021058E-1,2.7880615E-1,-1.3325422E-1,1.7699942E-1,-1.0867794E-1,7.114272E-2,1.4978881E-1,3.4573476E-3,1.9386735E-2,-1.4656185E-1,1.9017108E-1,-7.1752715E-1,1.5099075E-1,-2.2194111E-1,1.6518632E-1,2.9175806E-1],"split_indices":[2,4,5,7,6,7,9,1,4,8,2,2,1,2,0,8,8,2,5,0,0,9,0,8,5,8,3,0,8,9,4,2,9,4,4,0,0,4,0,0,0,0,8,0,0,8,9,4,0,5,0,8,2,0,0,0,0,0,0,0,0,0,0,0,0,0,0,0,0,0,0,0,0,0,0,0,0,0,0,0,0,0,0,0,0,0,0,0,0,0,0,0,0],"split_type":[0,0,0,0,0,0,0,0,0,0,0,0,0,0,0,0,0,0,0,0,0,0,0,0,0,0,0,0,0,0,0,0,0,0,0,0,0,0,0,0,0,0,0,0,0,0,0,0,0,0,0,0,0,0,0,0,0,0,0,0,0,0,0,0,0,0,0,0,0,0,0,0,0,0,0,0,0,0,0,0,0,0,0,0,0,0,0,0,0,0,0,0,0],"sum_hessian":[5.2530327E3,2.0280011E3,3.2250317E3,1.7318851E3,2.9611594E2,3.0215708E3,2.0346085E2,9.5881323E2,7.7307196E2,1.0823524E2,1.878807E2,1.5446931E3,1.4768778E3,4.243439E1,1.6102644E2,4.9365906E2,4.6515414E2,7.5618195E2,1.6890049E1,4.1258354E0,1.041094E2,3.595544E1,1.5192526E2,1.1545135E3,3.9017957E2,7.5487067E2,7.220071E2,1.7165996E0,4.0717793E1,4.1598724E2,7.767182E1,7.749113E1,3.8766302E2,7.54338E1,6.807481E2,1.4857059E1,2.0329902E0,1.02971016E2,1.1383858E0,1.1999584E1,2.3955856E1,1.0496769E2,4.6957577E1,3.664843E1,1.1178651E3,3.048681E2,8.5311485E1,3.4706436E2,4.078063E2,7.0788135E2,1.4125747E1,1.1489325E1,2.9228468E1,4.033015E2,1.2685746E1,2.6978249E1,5.0693573E1,3.125846E1,4.6232666E1,2.812367E2,1.0642632E2,4.362221E1,3.181159E1,3.184075E2,3.623406E2,3.0472992E1,7.2498024E1,1.6091062E0,2.234675E1,2.0803204E0,1.02887375E2,4.9667335E0,4.199084E1,3.28896E1,3.7588322E0,1.092361E3,2.5504128E1,1.859628E2,1.189053E2,2.8455622E1,5.6855865E1,1.3839487E2,2.0866951E2,2.795338E2,1.282725E2,4.8244974E2,2.254316E2,1.3288149E0,1.2796932E1,1.0382278E1,1.1070459E0,8.771774E0,2.0456694E1],"tree_param":{"num_deleted":"0","num_feature":"10","num_nodes":"93","size_leaf_vector":"1"}},{"base_weights":[6.6009946E-2,3.2422975E-2,8.585549E-1,1.3754816E-1,-1.5701585E-1,5.0860554E-1,9.7311175E-1,2.886523E-1,-7.3539235E-2,-3.6660773E-1,-1.758161E-2,2.7428797E-1,2.9763982E-1,6.483754E-1,3.005701E-1,6.3395634E-2,5.3909636E-1,-2.617633E-1,2.062357E-1,-1.8442623E-1,-6.026142E-1,1.6710702E-2,-9.591549E-1,6.341007E-4,6.6575426E-1,8.852874E-1,-5.305188E-1,-5.0886154E-2,4.0062264E-1,3.195697E-1,7.1561766E-1,-2.2339618E-1,-2.4354503E0,9.395932E-2,6.908956E-1,-1.3484375E-1,-1.4126587E0,-7.667181E-5,-7.171131E-1,-2.0102312E-1,1.3686657E-1,-1.4870114E0,3.0086726E-1,-3.5201702E-1,1.2010261E-1,2.687092E-1,-2.8527462E-1,4.720703E-2,2.8559858E-1,2.3328524E-2,-2.6598653E-1,1.38495155E-2,-1.2921782E-1,-1.3349138E-2,1.7623731E-1,1.6284347E-1,5.277231E-2,2.174203E-1,-1.7751463E-1,-6.094042E-2,-9.8549014E-1,9.050803E-3,-9.0569407E-1,-1.17378354E-1,6.402593E-2,-3.4671117E-2,2.3954546E-1,-1.7026412E-1,1.5019243E-2,2.3448943E-1,-5.6334114E-1,-1.9464801E-1,3.321549E-1,-2.715793E-1,-1.1445727E-1,-4.7800954E-2,-5.5401635E-1,-3.8809884E-2,8.171283E-2,-1.4570838E-1,-7.0391726E-1,1.3879733E-1,-9.083206E-2],"categories":[],"categories_nodes":[],"categories_segments":[],"categories_sizes":[],"default_left":[0,0,0,0,0,0,0,0,0,0,0,0,0,0,0,0,0,0,0,0,0,0,0,0,0,0,0,0,0,0,0,0,0,0,0,0,0,0,0,0,0,0,0,0,0,0,0,0,0,0,0,0,0,0,0,0,0,0,0,0,0,0,0,0,0,0,0,0,0,0,0,0,0,0,0,0,0,0,0,0,0,0,0],"id":7,"left_children":[1,3,5,7,9,11,13,15,17,19,21,23,-1,25,-1,27,29,31,33,35,37,39,41,43,45,47,49,51,53,55,57,59,61,63,65,67,69,71,73,75,77,79,-1,-1,81,-1,-1,-1,-1,-1,-1,-1,-1,-1,-1,-1,-1,-1,-1,-1,-1,-1,-1,-1,-1,-1,-1,-1,-1,-1,-1,-1,-1,-1,-1,-1,-1,-1,-1,-1,-1,-1,-1],"loss_changes":[1.3433249E2,9.647547E1,7.730179E0,9.938916E1,5.052157E1,5.6980667E0,7.8518677E-1,1.0240555E2,6.853905E1,2.9584755E1,3.357394E1,3.949963E0,0E0,4.7518153E0,0E0,3.690718E1,3.308641E1,6.4331055E1,2.8427664E1,2.3634466E1,2.0727554E1,2.6288103E1,3.9333782E1,3.3254845E0,6.491475E0,4.8831558E-1,7.6011837E-1,2.6405537E1,2.018285E1,1.2251667E1,6.098831E0,4.6818466E1,1.9357956E1,2.4792742E1,8.62381E0,3.0204052E1,1.6854134E1,3.589959E1,1.5595825E1,2.4221375E1,2.339214E1,2.398333E1,0E0,0E0,3.2567015E0,0E0,0E0,0E0,0E0,0E0,0E0,0E0,0E0,0E0,0E0,0E0,0E0,0E0,0E0,0E0,0E0,0E0,0E0,0E0,0E0,0E0,0E0,0E0,0E0,0E0,0E0,0E0,0E0,0E0,0E0,0E0,0E0,0E0,0E0,0E0,0E0,0E0,0E0],"parents":[2147483647,0,0,1,1,2,2,3,3,4,4,5,5,6,6,7,7,8,8,9,9,10,10,11,11,13,13,15,15,16,16,17,17,18,18,19,19,20,20,21,21,22,22,23,23,24,24,25,25,26,26,27,27,28,28,29,29,30,30,31,31,32,32,33,33,34,34,35,35,36,36,37,37,38,38,39,39,40,40,41,41,44,44],"right_children":[2,4,6,8,10,12,14,16,18,20,22,24,-1,26,-1,28,30,32,34,36,38,40,42,44,46,48,50,52,54,56,58,60,62,64,66,68,70,72,74,76,78,80,-1,-1,82,-1,-1,-1,-1,-1,-1,-1,-1,-1,-1,-1,-1,-1,-1,-1,-1,-1,-1,-1,-1,-1,-1,-1,-1,-1,-1,-1,-1,-1,-1,-1,-1,-1,-1,-1,-1,-1,-1],"split_conditions":[3E0,2E0,-5.7341086E4,3.4930574E4,-3.2490557E4,1.6706695E5,3.2E1,9.766561E4,1.4288028E5,1E0,1.8901614E5,4.3E1,2.9763982E-1,1.5642556E5,3.005701E-1,1.6271969E5,3.9E1,7.904416E4,1.180977E5,6E1,5.39E2,3.6E1,1.9186452E5,5.84E2,6.1E1,1.0192851E5,2.6E1,1.4173004E4,3.6E1,7.400504E4,7.2E1,1.9654984E5,5.39E2,5.170309E4,2E0,3.5E1,1E0,1.6537866E5,7.07E2,1.8084481E5,8.589102E4,9.563624E3,3.0086726E-1,-3.5201702E-1,6.52E2,2.687092E-1,-2.8527462E-1,4.720703E-2,2.8559858E-1,2.3328524E-2,-2.6598653E-1,1.38495155E-2,-1.2921782E-1,-1.3349138E-2,1.7623731E-1,1.6284347E-1,5.277231E-2,2.174203E-1,-1.7751463E-1,-6.094042E-2,-9.8549014E-1,9.050803E-3,-9.0569407E-1,-1.17378354E-1,6.402593E-2,-3.4671117E-2,2.3954546E-1,-1.7026412E-1,1.5019243E-2,2.3448943E-1,-5.6334114E-1,-1.9464801E-1,3.321549E-1,-2.715793E-1,-1.1445727E-1,-4.7800954E-2,-5.5401635E-1,-3.8809884E-2,8.171283E-2,-1.4570838E-1,-7.0391726E-1,1.3879733E-1,-9.083206E-2],"split_indices":[5,5,9,9,9,8,2,4,4,1,8,2,0,8,0,8,2,9,9,2,0,2,4,0,2,4,2,9,2,8,2,8,0,8,3,2,7,8,0,8,8,9,0,0,0,0,0,0,0,0,0,0,0,0,0,0,0,0,0,0,0,0,0,0,0,0,0,0,0,0,0,0,0,0,0,0,0,0,0,0,0,0,0],"split_type":[0,0,0,0,0,0,0,0,0,0,0,0,0,0,0,0,0,0,0,0,0,0,0,0,0,0,0,0,0,0,0,0,0,0,0,0,0,0,0,0,0,0,0,0,0,0,0,0,0,0,0,0,0,0,0,0,0,0,0,0,0,0,0,0,0,0,0,0,0,0,0,0,0,0,0,0,0,0,0,0,0,0,0],"sum_hessian":[5.046499E3,4.8423286E3,2.0417038E2,3.114355E3,1.7279735E3,5.1694218E1,1.5247615E2,1.8148506E3,1.2995044E3,6.8966614E2,1.0383074E3,3.587597E1,1.581825E1,1.4332051E1,1.381441E2,9.561313E2,8.587193E2,7.768965E2,5.22608E2,3.9022195E2,2.994442E2,1.0027686E3,3.5538807E1,2.1704847E1,1.417112E1,1.2141194E1,2.190857E0,7.1475824E2,2.4137305E2,3.839898E2,4.747295E2,7.645052E2,1.2391292E1,4.2528113E2,9.732683E1,3.7614706E2,1.4074885E1,4.797609E1,2.5146812E2,3.56352E2,6.464166E2,2.8195402E1,7.3434033E0,1.189898E0,2.051495E1,1.2796939E1,1.3741804E0,1.3011914E0,1.0840003E1,1.0976048E0,1.0932523E0,5.6999884E2,1.4475941E2,7.158627E1,1.6978677E2,1.492642E2,2.347256E2,4.7188446E2,2.8450398E0,7.6053827E2,3.9668908E0,2.5528579E0,9.838434E0,8.3568825E1,3.417123E2,1.1447165E1,8.587967E1,1.1199589E2,2.6415118E2,2.3427448E0,1.1732141E1,3.05126E1,1.746349E1,1.6004164E2,9.142648E1,3.486181E2,7.733906E0,2.1805453E2,4.2836206E2,1.3745189E1,1.4450213E1,1.1281877E1,9.233073E0],"tree_param":{"num_deleted":"0","num_feature":"10","num_nodes":"83","size_leaf_vector":"1"}},{"base_weights":[5.211204E-2,2.5978968E-2,8.046336E-1,-4.068616E-2,2.8118217E-1,4.325566E-1,9.437095E-1,5.055817E-2,-1.5397704E-1,5.277213E-1,1.3406932E-1,2.162063E-1,2.8842238E-1,5.736204E-1,2.9415128E-1,-1.7484546E-1,1.0477866E-1,-1.6684347E-1,1.0032676E0,3.307354E-1,7.5548446E-1,3.0399394E-1,-1.7224619E-1,4.7937033E-1,-1.2619151E-1,8.392827E-1,-4.0109035E-1,-2.7324006E-1,4.076692E-1,1.3089043E-1,-3.8967916E-1,-1.4670041E-1,-1.2121621E0,3.326618E-1,1.5172023E-1,5.0867844E-1,-1.0292765E-1,7.931579E-1,5.4894026E-2,4.4976968E-1,1.2681283E-1,-1.4499657E0,-7.0579834E-2,-7.402405E-2,7.759927E-1,-6.511828E-1,3.8251415E-1,3.7115294E-2,2.7623254E-1,-3.3537796E-1,1.6792625E-1,-1.9035168E-1,7.402877E-3,-1.2977205E-1,2.1830876E-1,7.422032E-2,3.3449985E-3,-4.726701E-1,-1.7018057E-2,-4.7363143E-2,2.9301357E-1,-6.304485E-1,4.1064005E-2,9.6561104E-2,2.3967741E-1,-2.4332654E-1,7.291703E-2,1.9670732E-1,2.6599863E-1,1.4846537E-1,-2.4780521E-1,8.0219954E-2,2.2521217E-1,1.9655763E-1,4.694591E-4,-1.07145794E-1,-1.0091445E0,2.4939154E-1,-5.721585E-2,1.21975E-1,-3.324349E-1,2.4888948E-1,2.689259E-2,-3.092286E-1,1.8764861E-1,2.5572413E-1,-3.0266577E-2],"categories":[],"categories_nodes":[],"categories_segments":[],"categories_sizes":[],"default_left":[0,0,0,0,0,0,0,0,0,0,0,0,0,0,0,0,0,0,0,0,0,0,0,0,0,0,0,0,0,0,0,0,0,0,0,0,0,0,0,0,0,0,0,0,0,0,0,0,0,0,0,0,0,0,0,0,0,0,0,0,0,0,0,0,0,0,0,0,0,0,0,0,0,0,0,0,0,0,0,0,0,0,0,0,0,0,0],"id":8,"left_children":[1,3,5,7,9,11,13,15,17,19,21,23,-1,25,-1,27,29,31,33,35,37,39,41,43,45,47,49,51,53,55,57,59,61,-1,-1,63,65,67,69,71,73,75,77,79,81,83,85,-1,-1,-1,-1,-1,-1,-1,-1,-1,-1,-1,-1,-1,-1,-1,-1,-1,-1,-1,-1,-1,-1,-1,-1,-1,-1,-1,-1,-1,-1,-1,-1,-1,-1,-1,-1,-1,-1,-1,-1],"loss_changes":[9.5077705E1,7.9539375E1,7.9884415E0,3.8329586E1,3.504876E1,5.0547943E0,1.0344391E0,2.5123043E1,2.4795486E1,1.5970474E1,3.1687496E1,3.1179872E0,0E0,3.7066326E0,0E0,2.296246E1,2.1437857E1,3.4284744E1,4.0231895E-1,1.5149414E1,4.3612137E0,1.0049255E1,2.8150621E1,3.2409878E0,4.3986735E0,5.0130796E-1,3.0116959E0,3.67886E1,1.5914465E1,2.1957869E1,3.2816746E1,2.03307E1,3.724614E1,0E0,0E0,7.2734222E0,1.4347135E1,1.4533157E0,4.12601E0,1.155896E1,1.1779299E1,3.2218708E1,2.2101677E1,4.2678075E0,3.9367867E-1,4.5295315E0,2.0215945E0,0E0,0E0,0E0,0E0,0E0,0E0,0E0,0E0,0E0,0E0,0E0,0E0,0E0,0E0,0E0,0E0,0E0,0E0,0E0,0E0,0E0,0E0,0E0,0E0,0E0,0E0,0E0,0E0,0E0,0E0,0E0,0E0,0E0,0E0,0E0,0E0,0E0,0E0,0E0,0E0],"parents":[2147483647,0,0,1,1,2,2,3,3,4,4,5,5,6,6,7,7,8,8,9,9,10,10,11,11,13,13,15,15,16,16,17,17,18,18,19,19,20,20,21,21,22,22,23,23,24,24,25,25,26,26,27,27,28,28,29,29,30,30,31,31,32,32,35,35,36,36,37,37,38,38,39,39,40,40,41,41,42,42,43,43,44,44,45,45,46,46],"right_children":[2,4,6,8,10,12,14,16,18,20,22,24,-1,26,-1,28,30,32,34,36,38,40,42,44,46,48,50,52,54,56,58,60,62,-1,-1,64,66,68,70,72,74,76,78,80,82,84,86,-1,-1,-1,-1,-1,-1,-1,-1,-1,-1,-1,-1,-1,-1,-1,-1,-1,-1,-1,-1,-1,-1,-1,-1,-1,-1,-1,-1,-1,-1,-1,-1,-1,-1,-1,-1,-1,-1,-1,-1],"split_conditions":[3E0,4.7E1,-5.7341086E4,1E0,1E0,1.6706695E5,3.2E1,5.007294E4,1.3863233E5,5.2E1,5.8E1,1E0,2.8842238E-1,1.5642556E5,2.9415128E-1,8.7669445E4,7.94E2,8.5E2,2.1043308E5,2E0,6.9E1,1E0,5.29E2,4.1E1,-6.181815E4,-4.428806E3,4E0,6.61E2,1E0,1E0,4E0,8.44E2,8E0,3.326618E-1,1.5172023E-1,1.446753E5,-3.6235008E4,5.6E1,1E0,1.3937723E5,5.46E2,1.5915174E4,5.47E2,-6.181815E4,5.8E1,4E0,3E0,3.7115294E-2,2.7623254E-1,-3.3537796E-1,1.6792625E-1,-1.9035168E-1,7.402877E-3,-1.2977205E-1,2.1830876E-1,7.422032E-2,3.3449985E-3,-4.726701E-1,-1.7018057E-2,-4.7363143E-2,2.9301357E-1,-6.304485E-1,4.1064005E-2,9.6561104E-2,2.3967741E-1,-2.4332654E-1,7.291703E-2,1.9670732E-1,2.6599863E-1,1.4846537E-1,-2.4780521E-1,8.0219954E-2,2.2521217E-1,1.9655763E-1,4.694591E-4,-1.07145794E-1,-1.0091445E0,2.4939154E-1,-5.721585E-2,1.21975E-1,-3.324349E-1,2.4888948E-1,2.689259E-2,-3.092286E-1,1.8764861E-1,2.5572413E-1,-3.0266577E-2],"split_indices":[5,2,9,7,7,8,2,8,9,2,2,1,0,8,0,9,0,0,4,5,2,1,0,2,9,9,3,0,1,1,3,0,3,0,0,8,9,2,1,8,0,9,0,9,2,5,3,0,0,0,0,0,0,0,0,0,0,0,0,0,0,0,0,0,0,0,0,0,0,0,0,0,0,0,0,0,0,0,0,0,0,0,0,0,0,0,0],"split_type":[0,0,0,0,0,0,0,0,0,0,0,0,0,0,0,0,0,0,0,0,0,0,0,0,0,0,0,0,0,0,0,0,0,0,0,0,0,0,0,0,0,0,0,0,0,0,0,0,0,0,0,0,0,0,0,0,0,0,0,0,0,0,0,0,0,0,0,0,0,0,0,0,0,0,0,0,0,0,0,0,0,0,0,0,0,0,0],"sum_hessian":[4.8347603E3,4.6734966E3,1.6126358E2,3.706192E3,9.673046E2,4.4995354E1,1.1626822E2,2.053145E3,1.6530468E3,3.6052744E2,6.067772E2,3.2931904E1,1.2063449E1,1.2014417E1,1.0425381E2,3.9768356E2,1.6554615E3,1.6357164E3,1.7330322E1,1.9464049E2,1.6588695E2,3.9028125E2,2.1649597E2,1.8394224E1,1.4537682E1,9.55036E0,2.464057E0,3.4067062E2,5.7012947E1,1.5731221E3,8.233952E1,1.6059113E3,2.9805216E1,1.3282318E1,4.048004E0,1.3788837E2,5.675211E1,1.5729639E2,8.590549E0,2.132727E2,1.7700854E2,1.497917E1,2.015168E2,6.6807346E0,1.1713489E1,7.01649E0,7.521192E0,1.2339034E0,8.316456E0,1.3175889E0,1.146468E0,1.53455E2,1.872156E2,1.5628366E1,4.138458E1,7.967738E2,7.7634827E2,1.7231913E1,6.510761E1,1.5909425E3,1.4968684E1,1.762709E1,1.2178126E1,8.517625E1,5.2712124E1,1.818558E1,3.8566532E1,6.692211E1,9.037428E1,6.0212946E0,2.569255E0,1.3397292E2,7.929978E1,3.3107582E1,1.4390096E2,1.0290107E1,4.689063E0,2.2992594E1,1.7852422E2,4.975247E0,1.7054876E0,1.0670799E1,1.0426898E0,5.5569353E0,1.4595546E0,3.4267762E0,4.094416E0],"tree_param":{"num_deleted":"0","num_feature":"10","num_nodes":"87","size_leaf_vector":"1"}},{"base_weights":[4.1336566E-2,2.1277405E-2,7.494146E-1,1.00494534E-1,-1.2024828E-1,3.747712E-1,9.1188776E-1,2.2055963E-1,-6.0516242E-2,-1.0147178E-1,-1.0932928E0,1.8485524E-1,2.7904338E-1,6.083357E-1,2.936261E-1,3.1516097E-2,4.5198092E-1,-3.50888E-1,3.477123E-2,4.4491953E-1,-1.3245948E-1,-1.3632249E0,2.5660515E-1,-4.9906563E-2,5.816427E-1,6.843805E-1,-6.2954165E-2,-1.8177332E-3,8.175559E-1,1.5463592E-1,5.5809724E-1,4.227614E-1,-4.7767517E-1,4.5311406E-2,-8.2142913E-1,-6.0549952E-2,1.0358912E0,-2.8967407E-1,-3.0140078E-2,-4.7586045E-1,1.831533E-1,4.2334628E-1,-3.0404654E-1,8.3829105E-1,-1.8707056E-1,2.9644042E-1,8.5217774E-1,2.4908364E-2,-7.793622E-2,2.7235827E-1,-2.1057582E-1,-3.0476904E-1,6.766466E-2,1.9740106E-1,1.3009681E-1,2.3272072E-1,-5.106135E-1,-2.0993398E-1,3.6291786E-2,-1.9594155E-2,9.415098E-2,-2.8133738E-1,1.5545535E-1,3.740984E-1,-3.3580515E-1,-4.617249E-1,-7.514516E-2,6.79591E-2,-2.9384408E-2,2.2223376E-1,-2.3668693E-1,-5.794319E-2,1.8740714E-1,6.740933E-2,-2.512847E-1,8.8789605E-2,2.7497593E-1,2.008764E-1,-2.4095145E-1,2.7648833E-1,9.816468E-2],"categories":[],"categories_nodes":[],"categories_segments":[],"categories_sizes":[],"default_left":[0,0,0,0,0,0,0,0,0,0,0,0,0,0,0,0,0,0,0,0,0,0,0,0,0,0,0,0,0,0,0,0,0,0,0,0,0,0,0,0,0,0,0,0,0,0,0,0,0,0,0,0,0,0,0,0,0,0,0,0,0,0,0,0,0,0,0,0,0,0,0,0,0,0,0,0,0,0,0,0,0],"id":9,"left_children":[1,3,5,7,9,11,13,15,17,19,21,23,-1,25,-1,27,29,31,33,35,37,39,-1,41,43,45,-1,47,49,51,53,55,57,59,-1,61,63,65,67,-1,69,71,73,75,-1,77,79,-1,-1,-1,-1,-1,-1,-1,-1,-1,-1,-1,-1,-1,-1,-1,-1,-1,-1,-1,-1,-1,-1,-1,-1,-1,-1,-1,-1,-1,-1,-1,-1,-1,-1],"loss_changes":[6.712908E1,5.1563362E1,7.583664E0,5.7014774E1,3.0045822E1,4.1612716E0,1.2337875E0,7.388942E1,3.4883484E1,2.7495224E1,1.7548576E1,2.9970164E0,0E0,1.3201866E0,0E0,2.4391161E1,2.3876251E1,3.0755013E1,2.7884216E1,2.611024E1,2.4671213E1,9.855972E0,0E0,2.6471376E0,4.210697E0,8.8894653E-1,0E0,1.9588457E1,5.8337326E0,1.6923756E1,6.668213E0,3.4612453E1,3.5731167E1,2.8158123E1,0E0,2.4826376E1,1.9710629E1,2.9225674E1,1.6216763E1,0E0,2.965507E0,1.0806344E0,4.1958694E0,1.6422129E-1,0E0,3.339618E0,1.2530136E-1,0E0,0E0,0E0,0E0,0E0,0E0,0E0,0E0,0E0,0E0,0E0,0E0,0E0,0E0,0E0,0E0,0E0,0E0,0E0,0E0,0E0,0E0,0E0,0E0,0E0,0E0,0E0,0E0,0E0,0E0,0E0,0E0,0E0,0E0],"parents":[2147483647,0,0,1,1,2,2,3,3,4,4,5,5,6,6,7,7,8,8,9,9,10,10,11,11,13,13,15,15,16,16,17,17,18,18,19,19,20,20,21,21,23,23,24,24,25,25,27,27,28,28,29,29,30,30,31,31,32,32,33,33,35,35,36,36,37,37,38,38,40,40,41,41,42,42,43,43,45,45,46,46],"right_children":[2,4,6,8,10,12,14,16,18,20,22,24,-1,26,-1,28,30,32,34,36,38,40,-1,42,44,46,-1,48,50,52,54,56,58,60,-1,62,64,66,68,-1,70,72,74,76,-1,78,80,-1,-1,-1,-1,-1,-1,-1,-1,-1,-1,-1,-1,-1,-1,-1,-1,-1,-1,-1,-1,-1,-1,-1,-1,-1,-1,-1,-1,-1,-1,-1,-1,-1,-1],"split_conditions":[3E0,2E0,-5.7341086E4,3.558503E4,1.9499834E5,1.6706695E5,3.6E1,9.766561E4,1.1835689E5,4.79E2,1.8682556E5,4.3E1,2.7904338E-1,1.8834305E5,2.936261E-1,1.9729777E5,3.4E1,2.8E1,1.9871527E5,1.5388794E5,3.7E1,5E1,2.5660515E-1,3E0,6.1E1,7.855864E3,-6.2954165E-2,9.563624E3,7.28E2,1.0433911E5,1.2368132E5,7E2,7.39E2,1.4959361E5,-8.2142913E-1,3.9E1,8E0,5.12E2,3.9E1,-4.7586045E-1,1E0,3.3E1,6.11E2,5.69E2,-1.8707056E-1,1.2250638E5,1.5944127E5,2.4908364E-2,-7.793622E-2,2.7235827E-1,-2.1057582E-1,-3.0476904E-1,6.766466E-2,1.9740106E-1,1.3009681E-1,2.3272072E-1,-5.106135E-1,-2.0993398E-1,3.6291786E-2,-1.9594155E-2,9.415098E-2,-2.8133738E-1,1.5545535E-1,3.740984E-1,-3.3580515E-1,-4.617249E-1,-7.514516E-2,6.79591E-2,-2.9384408E-2,2.2223376E-1,-2.3668693E-1,-5.794319E-2,1.8740714E-1,6.740933E-2,-2.512847E-1,8.8789605E-2,2.7497593E-1,2.008764E-1,-2.4095145E-1,2.7648833E-1,9.816468E-2],"split_indices":[5,5,9,9,8,8,2,4,4,0,4,2,0,8,0,8,2,2,8,8,2,2,0,3,2,9,0,9,0,4,4,0,0,8,0,2,3,0,2,0,7,2,0,0,0,4,4,0,0,0,0,0,0,0,0,0,0,0,0,0,0,0,0,0,0,0,0,0,0,0,0,0,0,0,0,0,0,0,0,0,0],"split_type":[0,0,0,0,0,0,0,0,0,0,0,0,0,0,0,0,0,0,0,0,0,0,0,0,0,0,0,0,0,0,0,0,0,0,0,0,0,0,0,0,0,0,0,0,0,0,0,0,0,0,0,0,0,0,0,0,0,0,0,0,0,0,0,0,0,0,0,0,0,0,0,0,0,0,0,0,0,0,0,0,0],"sum_hessian":[4.726374E3,4.597171E3,1.2920332E2,2.9475876E3,1.6495833E3,4.008313E1,8.912019E1,1.6882766E3,1.259311E3,1.6194377E3,3.0145433E1,3.0862286E1,9.220845E0,1.7910305E1,7.1209885E1,9.298425E2,7.58434E2,3.1048383E2,9.488272E2,8.619766E1,1.5332401E3,2.6741537E1,3.403897E0,1.9939297E1,1.0922989E1,1.6536848E1,1.373457E0,8.929717E2,3.6870834E1,2.0012572E2,5.583083E2,4.3389374E1,2.6709445E2,9.462141E2,2.6130738E0,4.694351E1,3.925415E1,6.03747E2,9.294931E2,2.3349024E1,3.3925123E0,6.733866E0,1.3205431E1,9.256312E0,1.6666765E0,5.828429E0,1.0708418E1,6.7247455E2,2.2049716E2,3.5182404E1,1.6884319E0,1.0670236E1,1.8945549E2,3.0730463E2,2.5100368E2,3.7752773E1,5.636602E0,1.946925E2,7.240195E1,6.706719E2,2.7554227E2,1.8412922E1,2.8530586E1,3.6136074E1,3.1180754E0,1.7197802E1,5.865492E2,1.9375189E2,7.357412E2,2.3070817E0,1.0854309E0,1.6678494E0,5.066017E0,6.9234567E0,6.281974E0,1.7707859E0,7.4855266E0,4.6436872E0,1.1847423E0,8.789944E0,1.9184743E0],"tree_param":{"num_deleted":"0","num_feature":"10","num_nodes":"81","size_leaf_vector":"1"}},{"base_weights":[3.2571413E-2,-2.3566907E-2,2.2694549E-1,6.765835E-2,-1.13143094E-1,2.7608752E-1,-2.841391E-1,-2.2010483E-2,2.0262502E-1,-9.126906E-2,-7.985148E-1,2.4695705E-1,2.8998104E-1,-1.0668392E0,-7.997779E-2,1.0414048E-1,-1.7979656E-1,5.549566E-1,1.2486885E-1,-1.507814E-1,1.2824981E-1,3.2360598E-1,-1.515631E0,3.483807E-1,4.7538538E-2,3.6474485E-2,-1.3445547E0,4.0596165E-2,-1.2193335E0,-8.4029794E-2,3.471162E-1,-1.3427213E0,-7.846925E-2,9.647783E-1,-4.878117E-1,7.591451E-2,7.173815E-1,-1.3889815E-1,-2.3392377E0,-1.3117179E0,1.6927741E-1,6.280918E-1,-5.426815E-1,-1.7620199E0,2.525813E-1,5.494898E-1,2.0838918E-1,-2.1769829E-1,2.4787402E-1,5.504849E-1,-2.727057E-1,-4.7082198E-1,-8.74547E-1,-2.0591883E-1,8.287992E-1,-5.129771E-1,-3.3176322E-3,6.919405E-3,-2.725386E-1,2.3285462E-1,7.824307E-3,-2.5092357E-1,-9.3330836E-1,1.4602828E-2,-2.0441037E-1,-1.1267881E-1,3.3475146E-1,-2.6610768E-1,1.5587308E-1,-1.742584E-2,1.1982354E-1,2.5411654E-1,-6.998495E-1,-2.8031996E-2,-1.6279724E-1,-7.757434E-1,-1.2572327E-1,-6.495209E-1,2.382022E-1,1.8607404E-2,2.1160059E-1,3.2296568E-1,-3.1158847E-1,-2.0319293E-1,-7.696966E-1,1.0744292E-1,2.2224931E-1,1.2087346E-1,1.9147592E-2,-4.522696E-2,-1.1474525E0,1.6455974E-1,-3.4467258E-2,5.3897824E-2,1.9353394E-1,1.4827429E-1,-3.7490782E-1,-1.3955719E-2,-4.495176E-1,3.1318974E-1,-3.0322638E-1],"categories":[],"categories_nodes":[],"categories_segments":[],"categories_sizes":[],"default_left":[0,0,0,0,0,0,0,0,0,0,0,0,0,0,0,0,0,0,0,0,0,0,0,0,0,0,0,0,0,0,0,0,0,0,0,0,0,0,0,0,0,0,0,0,0,0,0,0,0,0,0,0,0,0,0,0,0,0,0,0,0,0,0,0,0,0,0,0,0,0,0,0,0,0,0,0,0,0,0,0,0,0,0,0,0,0,0,0,0,0,0,0,0,0,0,0,0,0,0,0,0],"id":10,"left_children":[1,3,5,7,9,11,13,15,17,19,21,23,-1,25,27,29,31,33,35,37,39,41,43,45,47,49,51,53,55,57,59,61,63,65,67,69,71,73,75,77,79,81,-1,83,-1,85,87,89,91,93,-1,-1,95,97,99,-1,-1,-1,-1,-1,-1,-1,-1,-1,-1,-1,-1,-1,-1,-1,-1,-1,-1,-1,-1,-1,-1,-1,-1,-1,-1,-1,-1,-1,-1,-1,-1,-1,-1,-1,-1,-1,-1,-1,-1,-1,-1,-1,-1,-1,-1],"loss_changes":[5.030759E1,2.9243546E1,2.6026531E1,2.1464014E1,2.6995789E1,1.873024E1,1.44750595E1,2.124274E1,1.9324478E1,2.2892525E1,4.5323147E1,1.8311886E1,0E0,5.800123E0,1.0125879E1,2.7149359E1,5.5761086E1,5.504015E1,1.6804253E1,3.5508224E1,2.2315266E1,1.5776571E1,2.133052E1,1.6792496E1,1.6349026E1,2.8078911E0,2.1497536E-1,1.3246727E1,4.1610527E0,2.96068E1,3.5666664E1,3.1362732E1,3.3544525E1,1.9047508E1,1.5216435E1,2.3343824E1,1.9473444E1,2.5122076E1,2.4096832E0,2.0540295E1,2.0912127E1,1.642022E1,0E0,2.5509888E1,0E0,8.735954E0,9.976198E0,3.1415592E1,1.9169046E1,1.3887286E-2,0E0,0E0,4.2734613E0,1.06567E1,7.4800215E0,0E0,0E0,0E0,0E0,0E0,0E0,0E0,0E0,0E0,0E0,0E0,0E0,0E0,0E0,0E0,0E0,0E0,0E0,0E0,0E0,0E0,0E0,0E0,0E0,0E0,0E0,0E0,0E0,0E0,0E0,0E0,0E0,0E0,0E0,0E0,0E0,0E0,0E0,0E0,0E0,0E0,0E0,0E0,0E0,0E0,0E0],"parents":[2147483647,0,0,1,1,2,2,3,3,4,4,5,5,6,6,7,7,8,8,9,9,10,10,11,11,13,13,14,14,15,15,16,16,17,17,18,18,19,19,20,20,21,21,22,22,23,23,24,24,25,25,26,26,27,27,28,28,29,29,30,30,31,31,32,32,33,33,34,34,35,35,36,36,37,37,38,38,39,39,40,40,41,41,43,43,45,45,46,46,47,47,48,48,49,49,52,52,53,53,54,54],"right_children":[2,4,6,8,10,12,14,16,18,20,22,24,-1,26,28,30,32,34,36,38,40,42,44,46,48,50,52,54,56,58,60,62,64,66,68,70,72,74,76,78,80,82,-1,84,-1,86,88,90,92,94,-1,-1,96,98,100,-1,-1,-1,-1,-1,-1,-1,-1,-1,-1,-1,-1,-1,-1,-1,-1,-1,-1,-1,-1,-1,-1,-1,-1,-1,-1,-1,-1,-1,-1,-1,-1,-1,-1,-1,-1,-1,-1,-1,-1,-1,-1,-1,-1,-1,-1],"split_conditions":[4.6E1,1E0,6.6E1,1.3326769E5,1E1,3E0,6.658013E4,7.400504E4,2.9E1,1.4288028E5,5.960445E4,2E0,2.8998104E-1,1E0,1.405494E5,1.2285746E5,8.177684E4,1.642237E5,9.4568086E4,1.4182588E5,2.5E1,4.3943883E4,1.9186452E5,1E0,-1.6485256E4,3.426508E4,4.398241E4,1.3221745E5,9.972853E4,4.2715094E4,1.3438811E5,1.2384536E5,1.325083E5,4E0,6.750413E4,8E0,6E0,7.65E2,1.7764452E5,2.0577078E5,7.59E2,2E0,-5.426815E-1,-1.5815946E4,2.525813E-1,5E1,1.2940414E4,9.821804E4,5E0,7.17E2,-2.727057E-1,-4.7082198E-1,4.585955E4,4.1878695E4,7.2E1,-5.129771E-1,-3.3176322E-3,6.919405E-3,-2.725386E-1,2.3285462E-1,7.824307E-3,-2.5092357E-1,-9.3330836E-1,1.4602828E-2,-2.0441037E-1,-1.1267881E-1,3.3475146E-1,-2.6610768E-1,1.5587308E-1,-1.742584E-2,1.1982354E-1,2.5411654E-1,-6.998495E-1,-2.8031996E-2,-1.6279724E-1,-7.757434E-1,-1.2572327E-1,-6.495209E-1,2.382022E-1,1.8607404E-2,2.1160059E-1,3.2296568E-1,-3.1158847E-1,-2.0319293E-1,-7.696966E-1,1.0744292E-1,2.2224931E-1,1.2087346E-1,1.9147592E-2,-4.522696E-2,-1.1474525E0,1.6455974E-1,-3.4467258E-2,5.3897824E-2,1.9353394E-1,1.4827429E-1,-3.7490782E-1,-1.3955719E-2,-4.495176E-1,3.1318974E-1,-3.0322638E-1],"split_indices":[2,1,2,8,3,5,8,8,2,4,8,5,0,7,4,4,8,8,9,4,2,9,4,7,9,8,8,4,9,9,4,4,4,3,9,3,3,0,8,4,0,5,0,9,0,2,9,4,3,0,0,0,8,9,2,0,0,0,0,0,0,0,0,0,0,0,0,0,0,0,0,0,0,0,0,0,0,0,0,0,0,0,0,0,0,0,0,0,0,0,0,0,0,0,0,0,0,0,0,0,0],"split_type":[0,0,0,0,0,0,0,0,0,0,0,0,0,0,0,0,0,0,0,0,0,0,0,0,0,0,0,0,0,0,0,0,0,0,0,0,0,0,0,0,0,0,0,0,0,0,0,0,0,0,0,0,0,0,0,0,0,0,0,0,0,0,0,0,0,0,0,0,0,0,0,0,0,0,0,0,0,0,0,0,0,0,0,0,0,0,0,0,0,0,0,0,0,0,0,0,0,0,0,0,0],"sum_hessian":[4.6088794E3,3.5767393E3,1.0321403E3,1.7721793E3,1.8045599E3,9.4202234E2,9.0117966E1,1.0652728E3,7.0690643E2,1.7498458E3,5.471416E1,9.05193E2,3.6829327E1,1.776939E1,7.234858E1,5.9216956E2,4.731033E2,1.26693085E2,5.802134E2,1.3768816E3,3.7296423E2,2.1546936E1,3.3167225E1,5.995279E2,3.056651E2,3.7479851E0,1.4021404E1,6.6296974E1,6.051603E0,3.3409045E2,2.5807907E2,3.6936375E1,4.3616693E2,9.100264E1,3.5690445E1,5.369757E2,4.323766E1,1.3705032E3,6.3783183E0,9.47413E0,3.634901E2,1.9472162E1,2.0747728E0,3.025762E1,2.9096045E0,2.448525E2,3.546754E2,1.3149022E2,1.741749E2,2.6986594E0,1.0493257E0,7.9019847E0,6.1194196E0,5.1064888E1,1.5232085E1,4.0087647E0,2.0428379E0,2.9654147E2,3.754898E1,1.0984828E2,1.4823079E2,2.9859787E1,7.0765877E0,3.6096274E2,7.520419E1,9.066649E0,8.193599E1,2.5646557E1,1.0043888E1,3.8027625E2,1.5669946E2,4.21673E1,1.0703598E0,1.2329232E3,1.3758005E2,5.3452535E0,1.0330651E0,6.7218833E0,2.7522461E0,3.0381873E2,5.9671375E1,1.5622692E1,3.8494716E0,1.3661186E1,1.6596434E1,1.2386033E2,1.20992165E2,1.5044818E2,2.0422723E2,1.3011728E2,1.3729367E0,9.4960144E1,7.921475E1,1.1379371E0,1.5607224E0,1.2480773E0,4.871342E0,4.638077E1,4.6841145E0,1.402421E1,1.2078761E0],"tree_param":{"num_deleted":"0","num_feature":"10","num_nodes":"101","size_leaf_vector":"1"}},{"base_weights":[2.5620978E-2,1.0871786E-2,6.7571616E-1,-3.2346153E-3,5.685702E-1,3.1079596E-1,8.7899274E-1,1.2593622E-3,-6.1297876E-1,1.2696637E-1,7.459591E-1,1.5406029E-1,7.959563E-1,9.054376E-1,-1.569308E-2,-9.152597E-2,6.692785E-2,-1.2475398E0,4.0907824E-1,8.7255013E-1,2.2746785E-1,4.0251458E-1,-1.0555373E-1,2.678463E-1,1.6902547E-2,6.699717E-1,9.71273E-1,-1.4459638E-1,8.329288E-2,1.5968017E-1,-2.0163447E-2,5.853997E-1,-2.9028815E-1,3.1774303E-1,7.112769E-1,-6.8387175E-1,7.0240396E-1,7.472247E-1,1.5520664E-1,3.0350247E-1,-6.3089705E-1,2.3798692E-1,8.483675E-1,4.703337E-1,2.9748842E-1,-9.923563E-3,-1.2476335E-1,2.4600889E-1,-4.5333683E-5,3.3731967E-2,1.8673928E-1,2.8881805E-2,-4.281597E-2,2.3376052E-1,-1.5211216E-1,9.310162E-2,2.832343E-1,1.9434424E-2,2.575566E-1,1.8943721E-2,2.613565E-1,-3.680061E-2,2.1812527E-1,-2.6391768E-1,2.2287963E-1,-4.5339492E-1,-3.4849845E-2,1.8631679E-1,-1.950229E-1,2.764201E-1,7.9270296E-2,3.3096157E-3,1.9148107E-1],"categories":[],"categories_nodes":[],"categories_segments":[],"categories_sizes":[],"default_left":[0,0,0,0,0,0,0,0,0,0,0,0,0,0,0,0,0,0,0,0,0,0,0,0,0,0,0,0,0,0,0,0,0,0,0,0,0,0,0,0,0,0,0,0,0,0,0,0,0,0,0,0,0,0,0,0,0,0,0,0,0,0,0,0,0,0,0,0,0,0,0,0,0],"id":11,"left_children":[1,3,5,7,9,11,13,15,-1,17,19,21,23,25,-1,27,29,-1,31,33,35,37,39,-1,-1,41,43,45,47,49,51,53,-1,-1,55,-1,57,59,61,63,65,67,69,71,-1,-1,-1,-1,-1,-1,-1,-1,-1,-1,-1,-1,-1,-1,-1,-1,-1,-1,-1,-1,-1,-1,-1,-1,-1,-1,-1,-1,-1],"loss_changes":[4.3317486E1,3.4768597E1,7.161358E0,3.9527157E1,8.4460945E0,2.7215433E0,1.6191559E0,2.622306E1,0E0,4.093239E1,4.8934746E0,1.9459352E0,5.868006E-1,3.1215286E-1,0E0,1.6559965E1,2.036057E1,0E0,8.177958E0,1.112442E0,2.1338654E1,1.1872144E0,3.4628375E0,0E0,0E0,1.0924363E0,5.886078E-3,4.139074E1,2.5574295E1,2.661286E1,1.8573483E1,6.4119463E0,0E0,0E0,3.0959167E0,0E0,1.407774E0,4.6428227E-1,1.7042112E0,5.454744E0,2.9917386E0,2.5464957E0,2.4699879E-1,2.7918643E-1,0E0,0E0,0E0,0E0,0E0,0E0,0E0,0E0,0E0,0E0,0E0,0E0,0E0,0E0,0E0,0E0,0E0,0E0,0E0,0E0,0E0,0E0,0E0,0E0,0E0,0E0,0E0,0E0,0E0],"parents":[2147483647,0,0,1,1,2,2,3,3,4,4,5,5,6,6,7,7,9,9,10,10,11,11,12,12,13,13,15,15,16,16,18,18,19,19,20,20,21,21,22,22,25,25,26,26,27,27,28,28,29,29,30,30,31,31,34,34,36,36,37,37,38,38,39,39,40,40,41,41,42,42,43,43],"right_children":[2,4,6,8,10,12,14,16,-1,18,20,22,24,26,-1,28,30,-1,32,34,36,38,40,-1,-1,42,44,46,48,50,52,54,-1,-1,56,-1,58,60,62,64,66,68,70,72,-1,-1,-1,-1,-1,-1,-1,-1,-1,-1,-1,-1,-1,-1,-1,-1,-1,-1,-1,-1,-1,-1,-1,-1,-1,-1,-1,-1,-1],"split_conditions":[3E0,1.180977E5,-3.2490557E4,1.799602E5,6.45E2,1.6706695E5,1.9343789E5,3.7E1,-6.1297876E-1,2E0,7.5E2,1E0,3.834002E4,3.6E1,-1.569308E-2,1.6184581E5,1E0,-1.2475398E0,1.4808788E5,1E0,7.76E2,6.11E2,8.082302E4,2.678463E-1,1.6902547E-2,7.855864E3,1.781833E4,1.1409373E5,1.637984E5,5.2E1,1.3471054E4,2E0,-2.9028815E-1,3.1774303E-1,3.9E1,-6.8387175E-1,4E0,2.8E1,4.3E1,6.714297E4,3.7E1,1.2826086E5,1.5944127E5,1.0098464E4,2.9748842E-1,-9.923563E-3,-1.2476335E-1,2.4600889E-1,-4.5333683E-5,3.3731967E-2,1.8673928E-1,2.8881805E-2,-4.281597E-2,2.3376052E-1,-1.5211216E-1,9.310162E-2,2.832343E-1,1.9434424E-2,2.575566E-1,1.8943721E-2,2.613565E-1,-3.680061E-2,2.1812527E-1,-2.6391768E-1,2.2287963E-1,-4.5339492E-1,-3.4849845E-2,1.8631679E-1,-1.950229E-1,2.764201E-1,7.9270296E-2,3.3096157E-3,1.9148107E-1],"split_indices":[5,9,9,4,0,8,8,2,0,3,0,7,4,2,0,8,7,0,8,6,0,0,8,0,0,9,8,8,8,2,9,5,0,0,2,0,3,2,2,8,2,8,4,9,0,0,0,0,0,0,0,0,0,0,0,0,0,0,0,0,0,0,0,0,0,0,0,0,0,0,0,0,0],"split_type":[0,0,0,0,0,0,0,0,0,0,0,0,0,0,0,0,0,0,0,0,0,0,0,0,0,0,0,0,0,0,0,0,0,0,0,0,0,0,0,0,0,0,0,0,0,0,0,0,0,0,0,0,0,0,0,0,0,0,0,0,0,0,0,0,0,0,0,0,0,0,0,0,0],"sum_hessian":[4.517473E3,4.4182495E3,9.92234E1,4.310221E3,1.08028366E2,3.6402634E1,6.282076E1,4.301744E3,8.476931E0,3.1450108E1,7.6578255E1,2.8509813E1,7.892822E0,6.1113186E1,1.7075716E0,1.7826215E3,2.5191228E3,1.0938253E0,3.0356283E1,6.100167E1,1.5576585E1,1.4286754E1,1.422306E1,6.795673E0,1.0971488E0,1.5795544E1,4.5317642E1,1.3676206E3,4.1500082E2,1.21951E3,1.2996128E3,2.7419334E1,2.9369473E0,2.5699701E1,3.5301968E1,1.8756844E0,1.3700901E1,5.12368E0,9.163074E0,8.233984E0,5.989076E0,5.2987294E0,1.0496814E1,2.7108107E0,4.2606834E1,9.699978E2,3.9762286E2,4.13235E1,3.736773E2,1.1076825E3,1.11827545E2,6.665572E2,6.3305566E2,2.3531511E1,3.887824E0,1.3826337E1,2.1475632E1,2.973081E0,1.0727819E1,1.0175946E0,4.1060853E0,6.695317E0,2.4677565E0,1.958491E0,6.2754927E0,1.4953066E0,4.4937696E0,3.9119563E0,1.386773E0,8.817058E0,1.6797563E0,1.0111192E0,1.6996914E0],"tree_param":{"num_deleted":"0","num_feature":"10","num_nodes":"73","size_leaf_vector":"1"}},{"base_weights":[2.0179072E-2,8.905089E-3,6.128863E-1,-1.2290332E-1,5.4344267E-2,2.410587E-1,8.2681286E-1,-5.5539733E-1,-1.1235583E-1,2.5772044E-1,-2.0809049E-2,8.727244E-2,2.5673905E-1,3.3159876E-1,9.018617E-1,3.6489643E-2,-2.3296005E-1,6.5509446E-2,3.793251E-1,-1.1472914E0,-1.1076319E-2,3.3659005E-1,-1.8767656E-1,6.9922316E-1,-4.745299E-1,5.126279E-1,2.8112757E-1,1.0762714E-1,-6.792137E-1,-1.02147855E-1,-4.740325E-1,3.7300238E-1,-3.7112054E-1,7.5225586E-1,2.8432828E-1,-1.5143623E0,2.4194549E-1,8.843678E-1,-2.5801767E-2,-1.6254258E-1,6.649421E-1,-6.966914E-1,3.3506438E-1,9.641556E-3,2.4722785E-1,-2.783483E-1,4.1568328E-2,5.643804E-2,2.2646405E-1,-3.09453E-1,4.394864E-2,-8.071771E-1,-1.2160858E-1,-1.2310361E-1,1.921601E-2,8.388253E-1,-1.5674476E-1,1.3265996E-1,-5.107418E-1,-2.912253E-1,2.3747085E-2,4.0769376E-2,2.6035476E-1,2.4890427E-2,1.3940376E-1,1.6595855E-1,-5.7521135E-1,3.6326632E-1,-5.4379012E-2,-1.5378838E-2,1.2171241E-1,7.598278E-2,-2.5262216E-1,2.5432464E-1,8.808769E-2,9.7011E-2,-2.9384494E-1,1.7512637E-1,-8.668401E-2,1.5357748E-1,-1.22045435E-1],"categories":[],"categories_nodes":[],"categories_segments":[],"categories_sizes":[],"default_left":[0,0,0,0,0,0,0,0,0,0,0,0,0,0,0,0,0,0,0,0,0,0,0,0,0,0,0,0,0,0,0,0,0,0,0,0,0,0,0,0,0,0,0,0,0,0,0,0,0,0,0,0,0,0,0,0,0,0,0,0,0,0,0,0,0,0,0,0,0,0,0,0,0,0,0,0,0,0,0,0,0],"id":12,"left_children":[1,3,5,7,9,11,13,-1,15,17,19,21,-1,23,25,27,29,31,33,35,37,39,41,43,45,47,-1,49,51,53,55,57,59,61,63,65,-1,67,69,71,73,75,77,-1,-1,-1,-1,79,-1,-1,-1,-1,-1,-1,-1,-1,-1,-1,-1,-1,-1,-1,-1,-1,-1,-1,-1,-1,-1,-1,-1,-1,-1,-1,-1,-1,-1,-1,-1,-1,-1],"loss_changes":[2.9820366E1,2.6246803E1,6.426796E0,2.0273397E1,4.9812977E1,2.9348896E0,1.6508865E0,0E0,2.0073109E1,2.052884E1,2.6085117E1,1.8850665E0,0E0,2.8467472E0,1.3642883E-1,2.5588297E1,1.9426765E1,4.605014E1,1.8859756E1,1.5837576E1,3.1154451E1,2.4511623E0,3.76734E0,4.9268675E-1,1.0327969E0,6.139592E-1,0E0,2.0372313E1,2.3941423E1,2.0597933E1,3.5835163E1,2.9641623E1,3.8365227E1,7.626175E0,1.5602367E1,1.5646145E1,0E0,1.3520353E1,2.555129E1,2.043302E0,3.4977388E-1,2.3514814E0,1.2902783E0,0E0,0E0,0E0,0E0,8.711261E-1,0E0,0E0,0E0,0E0,0E0,0E0,0E0,0E0,0E0,0E0,0E0,0E0,0E0,0E0,0E0,0E0,0E0,0E0,0E0,0E0,0E0,0E0,0E0,0E0,0E0,0E0,0E0,0E0,0E0,0E0,0E0,0E0,0E0],"parents":[2147483647,0,0,1,1,2,2,3,3,4,4,5,5,6,6,8,8,9,9,10,10,11,11,13,13,14,14,15,15,16,16,17,17,18,18,19,19,20,20,21,21,22,22,23,23,24,24,25,25,27,27,28,28,29,29,30,30,31,31,32,32,33,33,34,34,35,35,37,37,38,38,39,39,40,40,41,41,42,42,47,47],"right_children":[2,4,6,8,10,12,14,-1,16,18,20,22,-1,24,26,28,30,32,34,36,38,40,42,44,46,48,-1,50,52,54,56,58,60,62,64,66,-1,68,70,72,74,76,78,-1,-1,-1,-1,80,-1,-1,-1,-1,-1,-1,-1,-1,-1,-1,-1,-1,-1,-1,-1,-1,-1,-1,-1,-1,-1,-1,-1,-1,-1,-1,-1,-1,-1,-1,-1,-1,-1],"split_conditions":[3E0,-3.2490557E4,-5.7341086E4,-6.2092637E4,8.774644E3,1.6706695E5,3.2E1,-5.5539733E-1,2E0,3.7E1,2.2E1,1E0,2.5673905E-1,6.53E2,2E0,3.834002E4,-6.181815E4,1E0,2E0,2.0577078E5,2.3E1,4.1E1,-6.181815E4,-1.7084637E4,7.59E2,6.75E2,2.8112757E-1,1.206739E4,6.658281E4,9.181738E4,3.08689E3,1E1,6.69E2,9.261664E4,1.0804086E5,1.2940414E4,2.4194549E-1,1E0,1.13067266E5,-6.181815E4,6.69E2,5.679302E4,9.502202E4,9.641556E-3,2.4722785E-1,-2.783483E-1,4.1568328E-2,7.01408E4,2.2646405E-1,-3.09453E-1,4.394864E-2,-8.071771E-1,-1.2160858E-1,-1.2310361E-1,1.921601E-2,8.388253E-1,-1.5674476E-1,1.3265996E-1,-5.107418E-1,-2.912253E-1,2.3747085E-2,4.0769376E-2,2.6035476E-1,2.4890427E-2,1.3940376E-1,1.6595855E-1,-5.7521135E-1,3.6326632E-1,-5.4379012E-2,-1.5378838E-2,1.2171241E-1,7.598278E-2,-2.5262216E-1,2.5432464E-1,8.808769E-2,9.7011E-2,-2.9384494E-1,1.7512637E-1,-8.668401E-2,1.5357748E-1,-1.22045435E-1],"split_indices":[5,9,9,9,9,8,2,0,5,2,2,1,0,0,3,4,9,7,3,4,2,2,9,9,0,0,0,8,4,8,8,3,0,4,8,9,0,7,9,9,0,8,8,0,0,0,0,8,0,0,0,0,0,0,0,0,0,0,0,0,0,0,0,0,0,0,0,0,0,0,0,0,0,0,0,0,0,0,0,0,0],"split_type":[0,0,0,0,0,0,0,0,0,0,0,0,0,0,0,0,0,0,0,0,0,0,0,0,0,0,0,0,0,0,0,0,0,0,0,0,0,0,0,0,0,0,0,0,0,0,0,0,0,0,0,0,0,0,0,0,0,0,0,0,0,0,0,0,0,0,0,0,0,0,0,0,0,0,0,0,0,0,0,0,0],"sum_hessian":[4.462493E3,4.380192E3,8.230134E1,1.1224686E3,3.2577234E3,3.0834484E1,5.146685E1,5.749644E0,1.116719E3,8.783492E2,2.3793743E3,2.5577774E1,5.25671E0,7.4863276E0,4.3980522E1,5.0014954E2,6.165695E2,3.4095956E2,5.373896E2,1.9380348E1,2.359994E3,1.329656E1,1.2281214E1,5.2326584E0,2.2536693E0,4.941049E0,3.9039474E1,4.557043E2,4.4445213E1,4.0061118E2,2.1595831E2,2.0015079E2,1.4080878E2,1.0769408E2,4.2969553E2,1.6504438E1,2.8759098E0,3.7226383E1,2.3227676E3,5.476551E0,7.8200097E0,6.053703E0,6.227511E0,1.023302E0,4.2093563E0,1.000543E0,1.2531263E0,2.1414378E0,2.7996113E0,1.4193329E1,4.41511E2,4.268572E0,4.0176643E1,1.3983578E2,2.607754E2,2.3249636E0,2.1363335E2,1.9445451E2,5.6962776E0,5.9893387E1,8.091538E1,1.7351162E1,9.034291E1,2.037124E2,2.2598312E2,2.6314807E0,1.3872958E1,2.839084E1,8.835544E0,2.1941821E3,1.2858545E2,3.7866833E0,1.6898677E0,4.380372E0,3.4396374E0,1.2828454E0,4.7708573E0,4.4990106E0,1.7285001E0,1.0268E0,1.1146377E0],"tree_param":{"num_deleted":"0","num_feature":"10","num_nodes":"81","size_leaf_vector":"1"}},{"base_weights":[1.6238289E-2,9.748539E-2,-6.464905E-2,2.523479E-2,2.2712354E-1,1.1562812E-1,-1.1271902E-1,4.09658E-2,-1.0077327E0,3.353956E-1,-1.499332E-2,-2.0916495E-1,2.937323E-1,-1.1604307E0,-1.0072795E-1,6.5125874E-3,3.4081343E-1,3.8372807E-2,-1.7108566E0,7.07726E-1,2.6865712E-1,1.7353366E-1,-5.4673517E-1,1.6658926E-1,-1.0425586E0,-2.0691806E-1,5.1915E-1,3.4215757E-1,-1.3753588E0,-4.0756783E-1,-6.361327E-2,-1.9071542E-2,4.983496E-1,-5.163746E-1,3.9693296E-1,6.307714E-1,-4.617091E-1,-2.2161388E0,1.3740097E-1,-4.4169942E-1,8.7565756E-1,-2.0442337E-2,4.482124E-1,2.1638907E-1,-1.561483E0,-9.4646436E-1,-2.6174417E-1,4.1230887E-1,-3.428907E-1,-2.2271346E-1,-1.6289763E0,1.3728149E-1,-9.909558E-1,5.708876E-1,-1.297267E0,-1.7728555E0,-2.3489586E-1,-3.1641182E-1,-3.1248345E0,-4.307567E-2,-7.67478E-1,1.4951769E-3,-5.512474E-1,1.75892E-1,-6.4167964E-1,-1.7991936E-2,1.6063604E-1,2.6605994E-1,-1.4082424E-1,-3.643312E-1,-8.079637E-1,2.9879528E-1,-4.729191E-1,3.1060186E-1,-8.686521E-2,-2.3224337E-1,6.760863E-2,1.4034712E-1,-4.117632E-1,9.39658E-3,1.8161522E-1,-7.151083E-1,-7.2256014E-2,3.491555E-2,-3.5939687E-1,1.9080892E-1,9.357398E-3,-5.401555E-1,1.0137842E-1,-5.630544E-1,5.0347295E-2,-5.7395303E-1,1.739742E-1,9.6164785E-2,-3.757735E-1,-4.580976E-1,4.1270062E-2,2.3493312E-1,9.2243955E-2,-7.279003E-1,2.1283036E-1,-2.2290297E-1,-7.790545E-1,-3.3798558E-1,1.5840508E-1,-1.7357584E-2,-2.246978E-1,-2.2117655E-1,-1.0573864E0,-3.4091707E-2,3.9352372E-2,-2.7074522E-1,2.371651E-1],"categories":[],"categories_nodes":[],"categories_segments":[],"categories_sizes":[],"default_left":[0,0,0,0,0,0,0,0,0,0,0,0,0,0,0,0,0,0,0,0,0,0,0,0,0,0,0,0,0,0,0,0,0,0,0,0,0,0,0,0,0,0,0,0,0,0,0,0,0,0,0,0,0,0,0,0,0,0,0,0,0,0,0,0,0,0,0,0,0,0,0,0,0,0,0,0,0,0,0,0,0,0,0,0,0,0,0,0,0,0,0,0,0,0,0,0,0,0,0,0,0,0,0,0,0,0,0,0,0,0,0,0,0],"id":13,"left_children":[1,3,5,7,9,11,13,15,17,19,21,23,25,27,29,31,33,35,37,39,41,43,45,47,49,51,53,-1,55,57,59,61,63,-1,65,67,-1,69,-1,71,73,75,77,79,81,-1,83,85,87,89,91,93,95,97,99,101,103,105,107,109,111,-1,-1,-1,-1,-1,-1,-1,-1,-1,-1,-1,-1,-1,-1,-1,-1,-1,-1,-1,-1,-1,-1,-1,-1,-1,-1,-1,-1,-1,-1,-1,-1,-1,-1,-1,-1,-1,-1,-1,-1,-1,-1,-1,-1,-1,-1,-1,-1,-1,-1,-1,-1],"loss_changes":[2.8777401E1,2.0455269E1,1.9029692E1,2.2853352E1,2.049559E1,2.6812592E1,2.165476E1,1.4292954E1,1.5583788E1,1.3232151E1,2.4404068E1,5.164396E1,3.386071E1,1.1219284E1,1.9498774E1,1.5639927E1,1.718413E1,9.809268E0,1.48659935E1,1.6116806E1,2.3870148E1,1.3705358E1,4.653115E1,1.4431408E1,2.4259918E1,2.5387293E1,2.014822E1,0E0,7.8798065E0,4.478904E1,2.2093454E1,5.1700516E1,1.5509905E1,0E0,8.869146E0,2.5535157E0,0E0,1.7098618E0,0E0,1.9601267E1,1.3591957E1,3.2978676E1,1.07687E1,1.26746435E1,4.2635794E0,0E0,2.085904E1,6.584817E0,3.8007446E1,1.4859871E1,1.975399E1,1.7187864E1,1.7551981E1,1.1022697E1,1.5371956E1,9.456818E0,4.5968904E0,2.0080835E1,3.0198402E0,1.8314655E1,9.828884E0,0E0,0E0,0E0,0E0,0E0,0E0,0E0,0E0,0E0,0E0,0E0,0E0,0E0,0E0,0E0,0E0,0E0,0E0,0E0,0E0,0E0,0E0,0E0,0E0,0E0,0E0,0E0,0E0,0E0,0E0,0E0,0E0,0E0,0E0,0E0,0E0,0E0,0E0,0E0,0E0,0E0,0E0,0E0,0E0,0E0,0E0,0E0,0E0,0E0,0E0,0E0,0E0],"parents":[2147483647,0,0,1,1,2,2,3,3,4,4,5,5,6,6,7,7,8,8,9,9,10,10,11,11,12,12,13,13,14,14,15,15,16,16,17,17,18,18,19,19,20,20,21,21,22,22,23,23,24,24,25,25,26,26,28,28,29,29,30,30,31,31,32,32,34,34,35,35,37,37,39,39,40,40,41,41,42,42,43,43,44,44,46,46,47,47,48,48,49,49,50,50,51,51,52,52,53,53,54,54,55,55,56,56,57,57,58,58,59,59,60,60],"right_children":[2,4,6,8,10,12,14,16,18,20,22,24,26,28,30,32,34,36,38,40,42,44,46,48,50,52,54,-1,56,58,60,62,64,-1,66,68,-1,70,-1,72,74,76,78,80,82,-1,84,86,88,90,92,94,96,98,100,102,104,106,108,110,112,-1,-1,-1,-1,-1,-1,-1,-1,-1,-1,-1,-1,-1,-1,-1,-1,-1,-1,-1,-1,-1,-1,-1,-1,-1,-1,-1,-1,-1,-1,-1,-1,-1,-1,-1,-1,-1,-1,-1,-1,-1,-1,-1,-1,-1,-1,-1,-1,-1,-1,-1,-1],"split_conditions":[1E0,1.3856448E5,5.61E2,8.5E2,1.7781588E5,5.1E2,4.03339E3,7.76E2,2.74454E4,2.9E1,1.195561E5,4.83E2,9.9339E4,1E0,5.95E2,1.07313695E5,2.7E1,1E0,5.8E1,4E0,3.9E1,5.9E1,3.2E1,3.1971334E4,4E0,5.43E2,1.6611845E5,3.4215757E-1,9E0,1.5944127E5,1E1,1.6253214E5,7.43E2,-5.163746E-1,8.124579E4,2E0,-4.617091E-1,-1.4384086E4,1.3740097E-1,4.79E2,7.15E2,7.975721E4,6.9E1,1.0295514E5,6.7E1,-9.4646436E-1,1E0,2E0,6E0,-2.8495862E3,1.751599E5,6.3398135E3,8E0,1.265478E5,5.54E2,1.1877164E4,7.04E2,5.81E2,2.006363E4,1.3495019E5,1.9186452E5,1.4951769E-3,-5.512474E-1,1.75892E-1,-6.4167964E-1,-1.7991936E-2,1.6063604E-1,2.6605994E-1,-1.4082424E-1,-3.643312E-1,-8.079637E-1,2.9879528E-1,-4.729191E-1,3.1060186E-1,-8.686521E-2,-2.3224337E-1,6.760863E-2,1.4034712E-1,-4.117632E-1,9.39658E-3,1.8161522E-1,-7.151083E-1,-7.2256014E-2,3.491555E-2,-3.5939687E-1,1.9080892E-1,9.357398E-3,-5.401555E-1,1.0137842E-1,-5.630544E-1,5.0347295E-2,-5.7395303E-1,1.739742E-1,9.6164785E-2,-3.757735E-1,-4.580976E-1,4.1270062E-2,2.3493312E-1,9.2243955E-2,-7.279003E-1,2.1283036E-1,-2.2290297E-1,-7.790545E-1,-3.3798558E-1,1.5840508E-1,-1.7357584E-2,-2.246978E-1,-2.2117655E-1,-1.0573864E0,-3.4091707E-2,3.9352372E-2,-2.7074522E-1,2.371651E-1],"split_indices":[1,8,0,0,8,0,8,0,8,2,4,0,4,3,0,9,2,7,2,3,2,2,2,9,3,0,4,0,3,4,3,4,0,0,4,5,0,9,0,0,0,4,2,4,2,0,7,5,3,9,4,9,3,4,0,9,0,0,8,4,4,0,0,0,0,0,0,0,0,0,0,0,0,0,0,0,0,0,0,0,0,0,0,0,0,0,0,0,0,0,0,0,0,0,0,0,0,0,0,0,0,0,0,0,0,0,0,0,0,0,0,0,0],"split_type":[0,0,0,0,0,0,0,0,0,0,0,0,0,0,0,0,0,0,0,0,0,0,0,0,0,0,0,0,0,0,0,0,0,0,0,0,0,0,0,0,0,0,0,0,0,0,0,0,0,0,0,0,0,0,0,0,0,0,0,0,0,0,0,0,0,0,0,0,0,0,0,0,0,0,0,0,0,0,0,0,0,0,0,0,0,0,0,0,0,0,0,0,0,0,0,0,0,0,0,0,0,0,0,0,0,0,0,0,0,0,0,0,0],"sum_hessian":[4.376922E3,2.1835024E3,2.1934192E3,1.4028523E3,7.806502E2,4.6144666E2,1.7319724E3,1.3827548E3,2.009756E1,5.391589E2,2.414913E2,1.6336243E2,2.9808423E2,1.8514402E1,1.7134581E3,1.2411638E3,1.4159099E2,8.458482E0,1.1639079E1,8.049227E1,4.586666E2,1.7877942E2,6.271189E1,1.1314746E2,5.0214966E1,9.2569786E1,2.0551445E2,1.2137554E0,1.7300648E1,1.8381496E2,1.5296431E3,1.1807075E3,6.0456223E1,2.965228E0,1.3862576E2,6.5854254E0,1.8730564E0,9.422181E0,2.2168977E0,1.0053025E1,7.043925E1,1.7606802E2,2.8259857E2,1.7532414E2,3.4552746E0,5.1855254E0,5.7526363E1,7.6461296E1,3.6686165E1,2.1515242E1,2.8699726E1,6.490209E1,2.7667692E1,2.0048955E2,5.024904E0,1.2417981E1,4.882666E0,1.789289E2,4.8860726E0,1.4873071E3,4.2335957E1,1.1662764E3,1.4431147E1,5.9257584E1,1.198637E0,3.2381916E1,1.0624384E2,5.499238E0,1.0861877E0,4.1835876E0,5.238594E0,4.4883924E0,5.564633E0,6.2047604E1,8.391644E0,4.2771065E1,1.3329697E2,2.803223E2,2.276288E0,1.1953502E2,5.578912E1,1.6333803E0,1.8218944E0,4.1600506E1,1.5925858E1,4.7757927E1,2.870337E1,1.11561985E1,2.5529968E1,3.382549E0,1.8132692E1,2.554671E1,3.1530173E0,5.80208E1,6.881294E0,1.851851E1,9.149181E0,1.0993997E2,9.0549576E1,3.0818117E0,1.9430921E0,6.36481E0,6.053171E0,2.0314703E0,2.8511958E0,1.1270121E2,6.6227684E1,1.1087266E0,3.7773461E0,1.0588638E3,4.284434E2,3.9347202E1,2.9887562E0],"tree_param":{"num_deleted":"0","num_feature":"10","num_nodes":"113","size_leaf_vector":"1"}},{"base_weights":[1.2273282E-2,2.7015752E-3,5.711661E-1,4.2836508E-1,-7.208648E-3,2.665993E-1,8.429781E-1,-3.0774894E-1,5.746617E-1,-3.7918534E-2,1.3017729E-1,1.4112839E-1,2.5851113E-1,4.934761E-1,2.9139733E-1,-5.1599156E-2,-4.8933193E-1,1.3516796E-1,7.6471347E-1,1.490323E-2,-1.2244775E-1,1.5346953E-1,-8.1325346E-1,-4.456847E-2,5.1949316E-1,6.5421325E-1,-1.24069445E-1,-9.024113E-1,6.2522763E-1,-3.8918677E-1,3.155955E-1,9.1228926E-1,2.728433E-1,-1.2511928E-1,1.0179509E-1,-3.3397958E-1,-4.4212326E-2,6.401321E-2,3.2991606E-1,1.6142213E-1,-1.2158072E0,1.5698704E-1,-5.494243E-1,7.943469E-1,-2.2661139E-1,1.6213776E-1,7.796427E-1,4.7897886E-2,-4.3439907E-1,-4.7139782E-2,2.8826925E-1,1.5240988E-1,-2.2078495E-1,-3.034104E-1,2.9788128E-1,-5.3862864E-1,2.4685742E-1,-2.9305553E-2,-4.052861E-1,2.6730476E-2,4.1249558E-1,-8.318735E-2,-7.02742E-1,2.7823625E-2,-7.40636E-2,7.691801E-2,-4.0698707E-2,1.8161845E-1,3.9426245E-2,-3.8370565E-1,2.1318853E-1,2.6054027E-2,-4.005354E-1,1.9501784E-1,-2.4686283E-2,-3.1490627E-1,2.2225308E-1,1.7317353E-2,2.6735502E-1,1.7066632E-1,-1.0298059E-1,2.629484E-1,5.4182652E-2],"categories":[],"categories_nodes":[],"categories_segments":[],"categories_sizes":[],"default_left":[0,0,0,0,0,0,0,0,0,0,0,0,0,0,0,0,0,0,0,0,0,0,0,0,0,0,0,0,0,0,0,0,0,0,0,0,0,0,0,0,0,0,0,0,0,0,0,0,0,0,0,0,0,0,0,0,0,0,0,0,0,0,0,0,0,0,0,0,0,0,0,0,0,0,0,0,0,0,0,0,0,0,0],"id":14,"left_children":[1,3,5,7,9,11,13,15,17,19,21,23,-1,25,-1,27,-1,29,31,33,35,37,39,41,43,45,-1,47,49,-1,51,53,55,57,59,61,63,65,67,69,71,73,75,77,-1,79,81,-1,-1,-1,-1,-1,-1,-1,-1,-1,-1,-1,-1,-1,-1,-1,-1,-1,-1,-1,-1,-1,-1,-1,-1,-1,-1,-1,-1,-1,-1,-1,-1,-1,-1,-1,-1],"loss_changes":[2.3070509E1,1.789457E1,5.786686E0,1.0570595E1,1.7496342E1,2.5445478E0,1.2211342E0,5.5606885E0,6.650757E0,1.5134251E1,1.6773344E1,2.1791232E0,0E0,2.0513825E0,0E0,9.193178E0,0E0,7.0325537E0,3.8331566E0,2.5400618E1,2.155698E1,1.166259E1,7.4207706E0,2.274437E0,4.167452E0,5.379009E-1,0E0,4.31533E0,2.4978125E0,0E0,5.142129E0,7.648979E0,1.7864492E1,2.6754448E1,2.0695835E1,3.940361E1,2.6466852E1,1.8950712E1,1.3524324E1,5.864964E0,2.1594563E0,1.9584246E0,4.881483E0,5.807519E-1,0E0,9.0426797E-1,3.240757E-1,0E0,0E0,0E0,0E0,0E0,0E0,0E0,0E0,0E0,0E0,0E0,0E0,0E0,0E0,0E0,0E0,0E0,0E0,0E0,0E0,0E0,0E0,0E0,0E0,0E0,0E0,0E0,0E0,0E0,0E0,0E0,0E0,0E0,0E0,0E0,0E0],"parents":[2147483647,0,0,1,1,2,2,3,3,4,4,5,5,6,6,7,7,8,8,9,9,10,10,11,11,13,13,15,15,17,17,18,18,19,19,20,20,21,21,22,22,23,23,24,24,25,25,27,27,28,28,30,30,31,31,32,32,33,33,34,34,35,35,36,36,37,37,38,38,39,39,40,40,41,41,42,42,43,43,45,45,46,46],"right_children":[2,4,6,8,10,12,14,16,18,20,22,24,-1,26,-1,28,-1,30,32,34,36,38,40,42,44,46,-1,48,50,-1,52,54,56,58,60,62,64,66,68,70,72,74,76,78,-1,80,82,-1,-1,-1,-1,-1,-1,-1,-1,-1,-1,-1,-1,-1,-1,-1,-1,-1,-1,-1,-1,-1,-1,-1,-1,-1,-1,-1,-1,-1,-1,-1,-1,-1,-1,-1,-1],"split_conditions":[3E0,4.46E2,-1.5047286E4,5.871963E4,4.7E1,4E0,3.6E1,4.904623E4,1.4454438E3,3.4930574E4,7.2E1,4.3E1,2.5851113E-1,1.7082144E5,2.9139733E-1,1.0295514E5,-4.8933193E-1,3.6E1,1.3871892E5,-4.7555348E4,5.4500082E4,1.4076556E5,5.47E2,4E1,6.5E1,7.855864E3,-1.24069445E-1,2E0,5E0,-3.8918677E-1,4.7E1,2.9E1,8.3525734E4,3.834002E4,1.5447555E5,5.3558965E4,6.69E2,5E0,1.6184581E5,2E0,9.68452E3,2E0,7.69E2,6.714297E4,-2.2661139E-1,6.51E2,1E0,4.7897886E-2,-4.3439907E-1,-4.7139782E-2,2.8826925E-1,1.5240988E-1,-2.2078495E-1,-3.034104E-1,2.9788128E-1,-5.3862864E-1,2.4685742E-1,-2.9305553E-2,-4.052861E-1,2.6730476E-2,4.1249558E-1,-8.318735E-2,-7.02742E-1,2.7823625E-2,-7.40636E-2,7.691801E-2,-4.0698707E-2,1.8161845E-1,3.9426245E-2,-3.8370565E-1,2.1318853E-1,2.6054027E-2,-4.005354E-1,1.9501784E-1,-2.4686283E-2,-3.1490627E-1,2.2225308E-1,1.7317353E-2,2.6735502E-1,1.7066632E-1,-1.0298059E-1,2.629484E-1,5.4182652E-2],"split_indices":[5,0,9,8,2,5,2,9,9,9,2,2,0,8,0,4,0,2,4,9,9,8,0,2,2,9,0,3,3,0,2,2,9,4,4,9,0,3,8,5,8,3,0,8,0,0,1,0,0,0,0,0,0,0,0,0,0,0,0,0,0,0,0,0,0,0,0,0,0,0,0,0,0,0,0,0,0,0,0,0,0,0,0],"split_type":[0,0,0,0,0,0,0,0,0,0,0,0,0,0,0,0,0,0,0,0,0,0,0,0,0,0,0,0,0,0,0,0,0,0,0,0,0,0,0,0,0,0,0,0,0,0,0,0,0,0,0,0,0,0,0,0,0,0,0,0,0,0,0,0,0,0,0,0,0,0,0,0,0,0,0,0,0,0,0,0,0,0,0],"sum_hessian":[4.31189E3,4.240275E3,7.161494E1,9.551453E1,4.1447603E3,3.4706707E1,3.6908226E1,1.5652574E1,7.986195E1,3.3881345E3,7.566259E2,2.9685097E1,5.021611E0,1.1214554E1,2.5693672E1,1.3984681E1,1.6678916E0,2.4625902E1,5.523605E1,2.0856494E3,1.3024852E3,7.392129E2,1.7413E1,2.0504128E1,9.18097E0,9.763159E0,1.451395E0,6.0483027E0,7.936379E0,2.0623484E0,2.2563555E1,4.183081E1,1.3405237E1,7.9848505E2,1.2871643E3,3.5078064E2,9.517046E2,4.9142767E2,2.4778525E2,5.264773E0,1.2148227E1,1.514627E1,5.357857E0,7.862726E0,1.3182436E0,2.4488144E0,7.3143444E0,2.2926493E0,3.7556534E0,2.5424545E0,5.3939247E0,1.9510008E1,3.0535471E0,1.2188071E0,4.0612003E1,2.3403335E0,1.1064903E1,7.8206226E2,1.642282E1,1.2755176E3,1.164673E1,3.4225867E2,8.521967E0,5.682412E2,3.8346338E2,2.5014142E2,2.4128624E2,1.02911316E2,1.4487393E2,1.0864408E0,4.1783323E0,1.0421337E0,1.1106093E1,4.3877196E0,1.0758551E1,3.995268E0,1.362589E0,1.0989863E0,6.76374E0,1.2872412E0,1.1615733E0,5.897633E0,1.4167113E0],"tree_param":{"num_deleted":"0","num_feature":"10","num_nodes":"83","size_leaf_vector":"1"}},{"base_weights":[9.7536035E-3,4.733437E-3,7.6656324E-1,-2.7836694E-3,5.057213E-1,-1.8980144E-1,2.7350307E-1,4.7979504E-2,-9.255485E-2,2.2856322E-1,7.988171E-1,1.1914827E-1,-8.528237E-2,-7.767905E-2,-1.3073668E0,1.02278344E-1,7.166758E-1,4.3205795E-1,2.8705928E-1,1.325087E-2,3.1216547E-1,-6.8999596E-2,-1.658619E0,-5.2810695E-2,-4.6945173E-1,-4.138583E-1,-7.967488E-2,4.426369E-1,-1.08655766E-1,2.4715683E-1,5.6070197E-2,6.50189E-1,-1.6777587E-1,9.005439E-3,-6.5434825E-1,6.704538E-2,1.5331265E-1,-1.2871652E-2,-3.0310097E-1,-6.7054033E-1,-5.9902214E-2,-2.0533176E-2,3.7781408E-1,1.4107105E-2,-3.0238187E-1,1.2766556E-2,2.1780522E-1,-3.7725165E-1,3.1906113E-2,2.5194615E-1,4.3527342E-2,1.881636E-1,-3.151278E-1],"categories":[],"categories_nodes":[],"categories_segments":[],"categories_sizes":[],"default_left":[0,0,0,0,0,0,0,0,0,0,0,0,0,0,0,0,0,0,0,0,0,0,0,0,0,0,0,0,0,0,0,0,0,0,0,0,0,0,0,0,0,0,0,0,0,0,0,0,0,0,0,0,0],"id":15,"left_children":[1,3,5,7,9,-1,-1,11,13,15,17,19,21,23,25,27,29,31,-1,33,35,37,39,41,43,-1,-1,45,47,-1,-1,49,51,-1,-1,-1,-1,-1,-1,-1,-1,-1,-1,-1,-1,-1,-1,-1,-1,-1,-1,-1,-1],"loss_changes":[1.6175398E1,1.5936608E1,6.273323E0,1.9006514E1,4.8991337E0,0E0,0E0,2.5278252E1,2.7123537E1,1.9949667E0,1.3257294E0,3.550357E1,2.3661804E1,1.4485814E1,9.9894905E-1,2.0456078E0,2.2816896E-1,1.5298865E0,0E0,4.1377304E1,1.073909E1,2.2545921E1,7.513296E0,2.8838402E1,2.473592E1,0E0,0E0,1.1983998E0,4.5751505E0,0E0,0E0,6.6051865E-1,3.2485738E0,0E0,0E0,0E0,0E0,0E0,0E0,0E0,0E0,0E0,0E0,0E0,0E0,0E0,0E0,0E0,0E0,0E0,0E0,0E0,0E0],"parents":[2147483647,0,0,1,1,2,2,3,3,4,4,7,7,8,8,9,9,10,10,11,11,12,12,13,13,14,14,15,15,16,16,17,17,19,19,20,20,21,21,22,22,23,23,24,24,27,27,28,28,31,31,32,32],"right_children":[2,4,6,8,10,-1,-1,12,14,16,18,20,22,24,26,28,30,32,-1,34,36,38,40,42,44,-1,-1,46,48,-1,-1,50,52,-1,-1,-1,-1,-1,-1,-1,-1,-1,-1,-1,-1,-1,-1,-1,-1,-1,-1,-1,-1],"split_conditions":[1.3863233E5,3E0,5.43E2,2E0,-1.5047286E4,-1.8980144E-1,2.7350307E-1,4.904623E4,1.958966E5,1.6706695E5,3.6E1,1.0781267E5,8.5E2,7.94E2,5E1,4E0,1.8834305E5,1.5642556E5,2.8705928E-1,4.470037E4,4.3E1,1.9280025E5,4.8E1,7.9E2,9.181738E4,-4.138583E-1,-7.967488E-2,3.8E1,5E0,2.4715683E-1,5.6070197E-2,3.4E1,6.49E2,9.005439E-3,-6.5434825E-1,6.704538E-2,1.5331265E-1,-1.2871652E-2,-3.0310097E-1,-6.7054033E-1,-5.9902214E-2,-2.0533176E-2,3.7781408E-1,1.4107105E-2,-3.0238187E-1,1.2766556E-2,2.1780522E-1,-3.7725165E-1,3.1906113E-2,2.5194615E-1,4.3527342E-2,1.881636E-1,-3.151278E-1],"split_indices":[9,5,0,5,9,0,0,9,8,8,2,4,0,0,2,3,8,8,0,9,2,8,2,0,8,0,0,2,3,0,0,2,0,0,0,0,0,0,0,0,0,0,0,0,0,0,0,0,0,0,0,0,0],"split_type":[0,0,0,0,0,0,0,0,0,0,0,0,0,0,0,0,0,0,0,0,0,0,0,0,0,0,0,0,0,0,0,0,0,0,0,0,0,0,0,0,0,0,0,0,0,0,0,0,0,0,0,0,0],"sum_hessian":[4.257412E3,4.230357E3,2.7055086E1,4.1688003E3,6.1556614E1,2.2265084E0,2.4828579E1,2.663263E3,1.5055375E3,3.2553303E1,2.9003313E1,1.7361659E3,9.270969E2,1.4883757E3,1.7161745E1,2.6823137E1,5.730165E0,9.85887E0,1.9144444E1,1.121779E3,6.1438684E2,9.1863367E2,8.463265E0,1.400605E3,8.77707E1,1.5746819E1,1.4149253E0,9.842707E0,1.698043E1,4.304255E0,1.4259104E0,7.1681914E0,2.6906786E0,1.1142516E3,7.5275526E0,4.263828E2,1.8800404E2,8.9487317E2,2.3760525E1,5.684831E0,2.7784343E0,1.3850516E3,1.55534315E1,4.52669E1,4.25038E1,4.5579205E0,5.2847857E0,1.9125564E0,1.5067875E1,4.729778E0,2.4384134E0,1.5678983E0,1.1227802E0],"tree_param":{"num_deleted":"0","num_feature":"10","num_nodes":"53","size_leaf_vector":"1"}},{"base_weights":[7.622756E-3,6.681644E-2,-4.9939107E-2,1.2753783E-2,1.7457509E-1,1.2607798E-2,-1.748271E-1,2.3952402E-2,-7.937006E-1,3.5034993E-1,7.76377E-2,-2.7460022E-2,2.6519415E-1,-5.230711E-2,-3.9206398E-1,-1.04633994E-1,8.1479E-2,6.314935E-2,-1.3361776E0,1.9149213E-1,6.509489E-1,-8.142475E-2,3.8371146E-1,4.724532E-2,-3.0237904E-1,7.255503E-1,1.2731545E-1,-2.645408E-1,1.7843907E-1,-1.789136E0,-2.9612207E-1,-4.774308E-1,1.2359612E-2,1.4493155E-1,-1.4389703E-1,6.370522E-1,-5.8157706E-1,-5.100238E-1,-6.900147E-1,5.3885174E-1,-1.1895724E-1,7.341881E-1,-2.3004009E-1,1.5278909E-2,-9.42586E-1,6.0034096E-1,-3.7241197E-1,2.2000844E-2,6.5327245E-1,-9.332225E-1,-1.03433244E-1,8.918589E-1,-1.2550284E-1,-9.586553E-3,7.743559E-1,-5.4871228E-2,-8.7234807E-1,1.292221E0,1.09426245E-1,-2.2850091E0,2.199349E-1,5.3428936E-1,-4.052604E-1,-2.3211343E-2,-4.4206288E-1,1.0825063E-1,-5.331624E-2,1.925414E-2,1.5672585E-1,-9.160518E-1,-2.7578643E-2,2.5511187E-1,3.4298316E-2,1.4172419E-3,-3.0541235E-1,-2.7909085E-2,-3.2664728E-1,2.0400126E-1,-5.3919476E-1,-1.2901801E-1,2.1216615E-1,2.265438E-1,-1.0074387E-1,-4.6392164E-1,2.0309223E-1,-3.5920087E-1,2.265307E-2,-5.42483E-1,1.1362292E-1,1.8870158E-1,-4.0161207E-1,6.1335865E-2,-6.3343436E-1,-1.0496052E-1,2.2513473E-2,3.7849447E-1,-1.0344312E0,1.9515795E-1,-4.5813963E-1,8.0336295E-2,-1.9163492E-1,-2.333811E-2,2.870971E-1,-3.4054488E-1,2.301517E-1,1.779603E-2,-5.7151616E-1,3.269992E-1,-5.3656465E-1,-1.7500576E-1,3.8538773E-2,1.1777918E-1,-3.9062488E-1,5.562602E-1,2.4975358E-1,-1.3092871E-1,9.3102686E-2,-7.2932106E-1,-1.6069494E-1,2.4756783E-1,-7.7103645E-1,-3.874041E-1,-4.274672E-2],"categories":[],"categories_nodes":[],"categories_segments":[],"categories_sizes":[],"default_left":[0,0,0,0,0,0,0,0,0,0,0,0,0,0,0,0,0,0,0,0,0,0,0,0,0,0,0,0,0,0,0,0,0,0,0,0,0,0,0,0,0,0,0,0,0,0,0,0,0,0,0,0,0,0,0,0,0,0,0,0,0,0,0,0,0,0,0,0,0,0,0,0,0,0,0,0,0,0,0,0,0,0,0,0,0,0,0,0,0,0,0,0,0,0,0,0,0,0,0,0,0,0,0,0,0,0,0,0,0,0,0,0,0,0,0,0,0,0,0,0,0,0,0],"id":16,"left_children":[1,3,5,7,9,11,13,15,17,19,21,23,25,27,29,31,33,35,37,39,41,43,45,47,49,51,53,55,57,59,61,63,65,67,69,71,73,75,-1,77,79,81,83,85,87,89,91,93,95,97,99,101,103,105,107,109,111,113,115,117,-1,119,121,-1,-1,-1,-1,-1,-1,-1,-1,-1,-1,-1,-1,-1,-1,-1,-1,-1,-1,-1,-1,-1,-1,-1,-1,-1,-1,-1,-1,-1,-1,-1,-1,-1,-1,-1,-1,-1,-1,-1,-1,-1,-1,-1,-1,-1,-1,-1,-1,-1,-1,-1,-1,-1,-1,-1,-1,-1,-1,-1,-1],"loss_changes":[1.4334963E1,1.2080965E1,1.6664165E1,1.2502381E1,1.1778521E1,1.4400581E1,1.8926323E1,1.0100386E1,8.897723E0,1.1622288E1,2.1835331E1,2.524252E1,1.2272684E1,2.2393723E1,3.3857758E1,1.84172E1,1.350867E1,3.4435675E0,8.108137E0,1.7572567E1,6.3755493E0,2.4625526E1,2.5338856E1,1.4776054E1,3.2861435E1,6.4366055E0,1.3393952E1,3.0294415E1,1.6708834E1,2.2046593E1,2.208217E1,4.0078365E1,2.1411163E1,2.2415508E1,3.1125593E1,4.4596386E-1,1.1394933E0,1.7235881E0,0E0,2.6549263E1,2.25508E1,1.9930725E0,1.0679629E1,1.9567995E1,3.483155E1,7.4877434E0,3.530593E1,1.8353998E1,1.0072925E2,6.009744E1,4.0070557E1,2.443018E0,8.244643E0,1.653316E1,2.3308468E1,1.7330124E1,3.3670208E1,1.7369118E0,2.289435E1,2.237831E0,0E0,2.7822533E1,4.9598415E1,0E0,0E0,0E0,0E0,0E0,0E0,0E0,0E0,0E0,0E0,0E0,0E0,0E0,0E0,0E0,0E0,0E0,0E0,0E0,0E0,0E0,0E0,0E0,0E0,0E0,0E0,0E0,0E0,0E0,0E0,0E0,0E0,0E0,0E0,0E0,0E0,0E0,0E0,0E0,0E0,0E0,0E0,0E0,0E0,0E0,0E0,0E0,0E0,0E0,0E0,0E0,0E0,0E0,0E0,0E0,0E0,0E0,0E0,0E0,0E0],"parents":[2147483647,0,0,1,1,2,2,3,3,4,4,5,5,6,6,7,7,8,8,9,9,10,10,11,11,12,12,13,13,14,14,15,15,16,16,17,17,18,18,19,19,20,20,21,21,22,22,23,23,24,24,25,25,26,26,27,27,28,28,29,29,30,30,31,31,32,32,33,33,34,34,35,35,36,36,37,37,39,39,40,40,41,41,42,42,43,43,44,44,45,45,46,46,47,47,48,48,49,49,50,50,51,51,52,52,53,53,54,54,55,55,56,56,57,57,58,58,59,59,61,61,62,62],"right_children":[2,4,6,8,10,12,14,16,18,20,22,24,26,28,30,32,34,36,38,40,42,44,46,48,50,52,54,56,58,60,62,64,66,68,70,72,74,76,-1,78,80,82,84,86,88,90,92,94,96,98,100,102,104,106,108,110,112,114,116,118,-1,120,122,-1,-1,-1,-1,-1,-1,-1,-1,-1,-1,-1,-1,-1,-1,-1,-1,-1,-1,-1,-1,-1,-1,-1,-1,-1,-1,-1,-1,-1,-1,-1,-1,-1,-1,-1,-1,-1,-1,-1,-1,-1,-1,-1,-1,-1,-1,-1,-1,-1,-1,-1,-1,-1,-1,-1,-1,-1,-1,-1,-1],"split_conditions":[1E0,1.4076556E5,7E0,8.5E2,6.05E2,1.77028E5,6.76E2,3.5E1,3E0,4.2E1,4.8548543E4,1.3789856E5,1.7970512E5,6.11E2,6.87E2,4.822676E4,1.3310547E5,1E0,6.345218E4,3.2E1,5.8E1,3.0506914E4,1.7657028E5,1.3399111E5,3.4E1,2E0,7.76E2,4.470037E4,6.13E2,1.8507827E5,6.94E2,3.3780223E4,7.400504E4,1.2285746E5,1.3374544E5,1.300789E4,1E0,1E0,-6.900147E-1,1.357594E5,1.4490058E5,1.9786116E5,1.2192792E5,2.8E1,4.4E1,8.34E2,1E0,-6.181815E4,1.1076568E5,5.24E2,1E0,5.52E2,4.8E1,7.5E2,3.8854074E4,3.5E1,4.87E2,1E0,1.0192851E5,6E1,2.199349E-1,3.9E1,7.21E2,-2.3211343E-2,-4.4206288E-1,1.0825063E-1,-5.331624E-2,1.925414E-2,1.5672585E-1,-9.160518E-1,-2.7578643E-2,2.5511187E-1,3.4298316E-2,1.4172419E-3,-3.0541235E-1,-2.7909085E-2,-3.2664728E-1,2.0400126E-1,-5.3919476E-1,-1.2901801E-1,2.1216615E-1,2.265438E-1,-1.0074387E-1,-4.6392164E-1,2.0309223E-1,-3.5920087E-1,2.265307E-2,-5.42483E-1,1.1362292E-1,1.8870158E-1,-4.0161207E-1,6.1335865E-2,-6.3343436E-1,-1.0496052E-1,2.2513473E-2,3.7849447E-1,-1.0344312E0,1.9515795E-1,-4.5813963E-1,8.0336295E-2,-1.9163492E-1,-2.333811E-2,2.870971E-1,-3.4054488E-1,2.301517E-1,1.779603E-2,-5.7151616E-1,3.269992E-1,-5.3656465E-1,-1.7500576E-1,3.8538773E-2,1.1777918E-1,-3.9062488E-1,5.562602E-1,2.4975358E-1,-1.3092871E-1,9.3102686E-2,-7.2932106E-1,-1.6069494E-1,2.4756783E-1,-7.7103645E-1,-3.874041E-1,-4.274672E-2],"split_indices":[1,8,3,0,0,8,0,2,3,2,9,8,8,0,0,8,4,6,8,2,2,9,8,8,2,5,0,9,0,4,0,9,8,4,4,8,7,7,0,4,4,8,4,2,2,0,7,9,4,0,7,0,2,0,9,2,0,6,4,2,0,2,0,0,0,0,0,0,0,0,0,0,0,0,0,0,0,0,0,0,0,0,0,0,0,0,0,0,0,0,0,0,0,0,0,0,0,0,0,0,0,0,0,0,0,0,0,0,0,0,0,0,0,0,0,0,0,0,0,0,0,0,0],"split_type":[0,0,0,0,0,0,0,0,0,0,0,0,0,0,0,0,0,0,0,0,0,0,0,0,0,0,0,0,0,0,0,0,0,0,0,0,0,0,0,0,0,0,0,0,0,0,0,0,0,0,0,0,0,0,0,0,0,0,0,0,0,0,0,0,0,0,0,0,0,0,0,0,0,0,0,0,0,0,0,0,0,0,0,0,0,0,0,0,0,0,0,0,0,0,0,0,0,0,0,0,0,0,0,0,0,0,0,0,0,0,0,0,0,0,0,0,0,0,0,0,0,0,0],"sum_hessian":[4.205155E3,2.0731116E3,2.1320432E3,1.3812533E3,6.9185834E2,1.4211807E3,7.108624E2,1.3632926E3,1.7960709E1,2.4499643E2,4.468619E2,1.2273735E3,1.938072E2,4.5531113E2,2.5555128E2,4.211338E2,9.4215875E2,7.3053694E0,1.0655339E1,1.6135962E2,8.3636826E1,2.9453168E2,1.5233022E2,9.657679E2,2.616056E2,4.368554E1,1.5012167E2,2.370932E2,2.1821793E2,1.528779E1,2.4026349E2,9.985807E1,3.2127573E2,7.354551E2,2.0670369E2,3.8712668E0,3.4341025E0,6.560953E0,4.094386E0,7.580557E1,8.555404E1,7.656893E1,7.067889E0,2.656796E2,2.8852095E1,1.18566826E2,3.3763393E1,9.281418E2,3.7626083E1,6.183625E1,1.9976933E2,3.6504135E1,7.181403E0,1.2471866E2,2.5403017E1,1.7709328E2,5.9999924E1,1.1698251E1,2.0651968E2,1.2854637E1,2.4331522E0,2.7456564E1,2.1280693E2,7.201358E1,2.7844496E1,1.1307541E2,2.0820033E2,6.0681665E2,1.2863838E2,2.6136365E0,2.0409006E2,2.3041487E0,1.567118E0,1.8876299E0,1.5464728E0,4.488191E0,2.072762E0,7.215486E1,3.6507118E0,6.2499058E1,2.3054983E1,7.5386604E1,1.1823277E0,2.595726E0,4.4721627E0,1.1678649E1,2.5400095E2,1.7208881E1,1.1643211E1,1.17505394E2,1.0614308E0,2.601594E1,7.7474527E0,1.1516605E2,8.1297577E2,3.3368732E1,4.257351E0,1.6838509E1,4.499774E1,1.182633E2,8.1506035E1,2.2854075E0,3.4218727E1,3.2424512E0,3.9389522E0,1.2127847E2,3.440179E0,2.3129183E1,2.273834E0,4.504985E1,1.3204343E2,1.5236617E1,4.4763306E1,3.898741E0,7.79951E0,5.524798E1,1.512717E2,1.1504398E1,1.3502393E0,2.5775164E1,1.6814004E0,4.7778744E1,1.6502818E2],"tree_param":{"num_deleted":"0","num_feature":"10","num_nodes":"123","size_leaf_vector":"1"}},{"base_weights":[6.8026497E-3,2.866711E-4,4.7460377E-1,2.30032E-1,-1.1907648E-2,2.6332244E-1,8.5405135E-1,5.303695E-1,6.348829E-2,3.3524178E-2,-9.195325E-2,7.1698435E-2,6.3959444E-1,2.71137E-1,3.0756587E-2,6.368436E-1,-6.158494E-1,-1.7863503E-1,6.4448327E-1,1.0082111E-1,-5.488841E-2,-8.6836296E-1,-7.3827356E-2,-1.8162197E-2,2.1303779E-1,2.4937037E-1,-1.1373394E-1,-3.905901E-1,7.005226E-1,-1.4699571E0,2.6782113E-1,4.4206733E-1,-6.617152E-1,9.411415E-1,-7.807876E-1,2.3306286E-2,2.2482109E-1,-1.6935588E0,-4.0684786E-2,